digraph Tree {
node [shape=box] ;
0 [label="X[6] <= 4.5\ngini = 0.792\nsamples = 9863\nvalue = [1528, 2654, 651, 1034, 1167, 2829]"] ;
1 [label="X[5] <= 12.5\ngini = 0.51\nsamples = 3673\nvalue = [295, 445, 99, 163, 170, 2501]"] ;
0 -> 1 [labeldistance=2.5, labelangle=45, headlabel="True"] ;
2 [label="X[6] <= 0.5\ngini = 0.348\nsamples = 3062\nvalue = [137, 198, 42, 89, 141, 2455]"] ;
1 -> 2 ;
3 [label="X[5] <= 7.5\ngini = 0.634\nsamples = 587\nvalue = [44, 70, 10, 39, 94, 330]"] ;
2 -> 3 ;
4 [label="X[5] <= 0.5\ngini = 0.544\nsamples = 449\nvalue = [34, 63, 8, 16, 36, 292]"] ;
3 -> 4 ;
5 [label="X[7] <= 0.5\ngini = 0.77\nsamples = 151\nvalue = [24, 46, 8, 13, 14, 46]"] ;
4 -> 5 ;
6 [label="X[4] <= 103.0\ngini = 0.743\nsamples = 127\nvalue = [7, 42, 8, 12, 14, 44]"] ;
5 -> 6 ;
7 [label="X[4] <= 28.5\ngini = 0.742\nsamples = 105\nvalue = [7, 23, 8, 10, 13, 44]"] ;
6 -> 7 ;
8 [label="X[3] <= 3.5\ngini = 0.563\nsamples = 36\nvalue = [2, 2, 2, 4, 3, 23]"] ;
7 -> 8 ;
9 [label="X[1] <= 0.5\ngini = 0.688\nsamples = 8\nvalue = [0, 1, 1, 3, 0, 3]"] ;
8 -> 9 ;
10 [label="X[18] <= 0.5\ngini = 0.444\nsamples = 3\nvalue = [0, 1, 0, 0, 0, 2]"] ;
9 -> 10 ;
11 [label="gini = 0.0\nsamples = 2\nvalue = [0, 0, 0, 0, 0, 2]"] ;
10 -> 11 ;
12 [label="gini = 0.0\nsamples = 1\nvalue = [0, 1, 0, 0, 0, 0]"] ;
10 -> 12 ;
13 [label="X[13] <= 0.5\ngini = 0.56\nsamples = 5\nvalue = [0, 0, 1, 3, 0, 1]"] ;
9 -> 13 ;
14 [label="X[11] <= 0.5\ngini = 0.375\nsamples = 4\nvalue = [0, 0, 1, 3, 0, 0]"] ;
13 -> 14 ;
15 [label="gini = 0.0\nsamples = 3\nvalue = [0, 0, 0, 3, 0, 0]"] ;
14 -> 15 ;
16 [label="gini = 0.0\nsamples = 1\nvalue = [0, 0, 1, 0, 0, 0]"] ;
14 -> 16 ;
17 [label="gini = 0.0\nsamples = 1\nvalue = [0, 0, 0, 0, 0, 1]"] ;
13 -> 17 ;
18 [label="X[4] <= 9.5\ngini = 0.469\nsamples = 28\nvalue = [2, 1, 1, 1, 3, 20]"] ;
8 -> 18 ;
19 [label="gini = 0.0\nsamples = 1\nvalue = [1, 0, 0, 0, 0, 0]"] ;
18 -> 19 ;
20 [label="X[4] <= 15.0\ngini = 0.433\nsamples = 27\nvalue = [1, 1, 1, 1, 3, 20]"] ;
18 -> 20 ;
21 [label="gini = 0.0\nsamples = 11\nvalue = [0, 0, 0, 0, 0, 11]"] ;
20 -> 21 ;
22 [label="X[4] <= 21.5\ngini = 0.633\nsamples = 16\nvalue = [1, 1, 1, 1, 3, 9]"] ;
20 -> 22 ;
23 [label="X[4] <= 19.5\ngini = 0.5\nsamples = 2\nvalue = [0, 0, 0, 1, 1, 0]"] ;
22 -> 23 ;
24 [label="gini = 0.0\nsamples = 1\nvalue = [0, 0, 0, 0, 1, 0]"] ;
23 -> 24 ;
25 [label="gini = 0.0\nsamples = 1\nvalue = [0, 0, 0, 1, 0, 0]"] ;
23 -> 25 ;
26 [label="X[3] <= 4.5\ngini = 0.551\nsamples = 14\nvalue = [1, 1, 1, 0, 2, 9]"] ;
22 -> 26 ;
27 [label="X[15] <= 0.5\ngini = 0.5\nsamples = 2\nvalue = [0, 0, 1, 0, 1, 0]"] ;
26 -> 27 ;
28 [label="gini = 0.0\nsamples = 1\nvalue = [0, 0, 0, 0, 1, 0]"] ;
27 -> 28 ;
29 [label="gini = 0.0\nsamples = 1\nvalue = [0, 0, 1, 0, 0, 0]"] ;
27 -> 29 ;
30 [label="X[0] <= 0.5\ngini = 0.417\nsamples = 12\nvalue = [1, 1, 0, 0, 1, 9]"] ;
26 -> 30 ;
31 [label="X[16] <= 0.5\ngini = 0.612\nsamples = 7\nvalue = [1, 1, 0, 0, 1, 4]"] ;
30 -> 31 ;
32 [label="gini = 0.5\nsamples = 6\nvalue = [0, 1, 0, 0, 1, 4]"] ;
31 -> 32 ;
33 [label="gini = 0.0\nsamples = 1\nvalue = [1, 0, 0, 0, 0, 0]"] ;
31 -> 33 ;
34 [label="gini = 0.0\nsamples = 5\nvalue = [0, 0, 0, 0, 0, 5]"] ;
30 -> 34 ;
35 [label="X[10] <= 0.5\ngini = 0.773\nsamples = 69\nvalue = [5, 21, 6, 6, 10, 21]"] ;
7 -> 35 ;
36 [label="X[4] <= 45.0\ngini = 0.753\nsamples = 60\nvalue = [3, 18, 4, 6, 8, 21]"] ;
35 -> 36 ;
37 [label="X[9] <= 0.5\ngini = 0.798\nsamples = 34\nvalue = [3, 7, 2, 6, 6, 10]"] ;
36 -> 37 ;
38 [label="X[12] <= 0.5\ngini = 0.768\nsamples = 29\nvalue = [3, 6, 0, 5, 5, 10]"] ;
37 -> 38 ;
39 [label="X[4] <= 32.0\ngini = 0.739\nsamples = 25\nvalue = [2, 5, 0, 5, 3, 10]"] ;
38 -> 39 ;
40 [label="X[3] <= 8.5\ngini = 0.755\nsamples = 14\nvalue = [2, 3, 0, 1, 3, 5]"] ;
39 -> 40 ;
41 [label="X[3] <= 6.5\ngini = 0.722\nsamples = 12\nvalue = [2, 1, 0, 1, 3, 5]"] ;
40 -> 41 ;
42 [label="gini = 0.64\nsamples = 10\nvalue = [1, 1, 0, 0, 3, 5]"] ;
41 -> 42 ;
43 [label="gini = 0.5\nsamples = 2\nvalue = [1, 0, 0, 1, 0, 0]"] ;
41 -> 43 ;
44 [label="gini = 0.0\nsamples = 2\nvalue = [0, 2, 0, 0, 0, 0]"] ;
40 -> 44 ;
45 [label="X[3] <= 7.5\ngini = 0.628\nsamples = 11\nvalue = [0, 2, 0, 4, 0, 5]"] ;
39 -> 45 ;
46 [label="X[4] <= 36.5\ngini = 0.625\nsamples = 8\nvalue = [0, 2, 0, 4, 0, 2]"] ;
45 -> 46 ;
47 [label="gini = 0.375\nsamples = 4\nvalue = [0, 1, 0, 3, 0, 0]"] ;
46 -> 47 ;
48 [label="gini = 0.625\nsamples = 4\nvalue = [0, 1, 0, 1, 0, 2]"] ;
46 -> 48 ;
49 [label="gini = 0.0\nsamples = 3\nvalue = [0, 0, 0, 0, 0, 3]"] ;
45 -> 49 ;
50 [label="X[3] <= 3.5\ngini = 0.625\nsamples = 4\nvalue = [1, 1, 0, 0, 2, 0]"] ;
38 -> 50 ;
51 [label="gini = 0.0\nsamples = 2\nvalue = [0, 0, 0, 0, 2, 0]"] ;
50 -> 51 ;
52 [label="X[4] <= 40.5\ngini = 0.5\nsamples = 2\nvalue = [1, 1, 0, 0, 0, 0]"] ;
50 -> 52 ;
53 [label="gini = 0.0\nsamples = 1\nvalue = [0, 1, 0, 0, 0, 0]"] ;
52 -> 53 ;
54 [label="gini = 0.0\nsamples = 1\nvalue = [1, 0, 0, 0, 0, 0]"] ;
52 -> 54 ;
55 [label="X[4] <= 32.0\ngini = 0.72\nsamples = 5\nvalue = [0, 1, 2, 1, 1, 0]"] ;
37 -> 55 ;
56 [label="X[4] <= 30.0\ngini = 0.5\nsamples = 2\nvalue = [0, 1, 0, 0, 1, 0]"] ;
55 -> 56 ;
57 [label="gini = 0.0\nsamples = 1\nvalue = [0, 0, 0, 0, 1, 0]"] ;
56 -> 57 ;
58 [label="gini = 0.0\nsamples = 1\nvalue = [0, 1, 0, 0, 0, 0]"] ;
56 -> 58 ;
59 [label="X[2] <= 0.5\ngini = 0.444\nsamples = 3\nvalue = [0, 0, 2, 1, 0, 0]"] ;
55 -> 59 ;
60 [label="gini = 0.0\nsamples = 1\nvalue = [0, 0, 1, 0, 0, 0]"] ;
59 -> 60 ;
61 [label="X[4] <= 35.5\ngini = 0.5\nsamples = 2\nvalue = [0, 0, 1, 1, 0, 0]"] ;
59 -> 61 ;
62 [label="gini = 0.0\nsamples = 1\nvalue = [0, 0, 0, 1, 0, 0]"] ;
61 -> 62 ;
63 [label="gini = 0.0\nsamples = 1\nvalue = [0, 0, 1, 0, 0, 0]"] ;
61 -> 63 ;
64 [label="X[1] <= 0.5\ngini = 0.63\nsamples = 26\nvalue = [0, 11, 2, 0, 2, 11]"] ;
36 -> 64 ;
65 [label="X[9] <= 0.5\ngini = 0.569\nsamples = 12\nvalue = [0, 7, 2, 0, 0, 3]"] ;
64 -> 65 ;
66 [label="X[4] <= 99.0\ngini = 0.46\nsamples = 10\nvalue = [0, 7, 2, 0, 0, 1]"] ;
65 -> 66 ;
67 [label="X[16] <= 0.5\ngini = 0.346\nsamples = 9\nvalue = [0, 7, 2, 0, 0, 0]"] ;
66 -> 67 ;
68 [label="X[3] <= 1.0\ngini = 0.219\nsamples = 8\nvalue = [0, 7, 1, 0, 0, 0]"] ;
67 -> 68 ;
69 [label="gini = 0.5\nsamples = 2\nvalue = [0, 1, 1, 0, 0, 0]"] ;
68 -> 69 ;
70 [label="gini = 0.0\nsamples = 6\nvalue = [0, 6, 0, 0, 0, 0]"] ;
68 -> 70 ;
71 [label="gini = 0.0\nsamples = 1\nvalue = [0, 0, 1, 0, 0, 0]"] ;
67 -> 71 ;
72 [label="gini = 0.0\nsamples = 1\nvalue = [0, 0, 0, 0, 0, 1]"] ;
66 -> 72 ;
73 [label="gini = 0.0\nsamples = 2\nvalue = [0, 0, 0, 0, 0, 2]"] ;
65 -> 73 ;
74 [label="X[17] <= 0.5\ngini = 0.571\nsamples = 14\nvalue = [0, 4, 0, 0, 2, 8]"] ;
64 -> 74 ;
75 [label="X[4] <= 54.5\ngini = 0.521\nsamples = 13\nvalue = [0, 4, 0, 0, 1, 8]"] ;
74 -> 75 ;
76 [label="X[2] <= 0.5\ngini = 0.48\nsamples = 5\nvalue = [0, 3, 0, 0, 0, 2]"] ;
75 -> 76 ;
77 [label="gini = 0.0\nsamples = 1\nvalue = [0, 0, 0, 0, 0, 1]"] ;
76 -> 77 ;
78 [label="X[3] <= 8.5\ngini = 0.375\nsamples = 4\nvalue = [0, 3, 0, 0, 0, 1]"] ;
76 -> 78 ;
79 [label="gini = 0.0\nsamples = 3\nvalue = [0, 3, 0, 0, 0, 0]"] ;
78 -> 79 ;
80 [label="gini = 0.0\nsamples = 1\nvalue = [0, 0, 0, 0, 0, 1]"] ;
78 -> 80 ;
81 [label="X[2] <= 0.5\ngini = 0.406\nsamples = 8\nvalue = [0, 1, 0, 0, 1, 6]"] ;
75 -> 81 ;
82 [label="gini = 0.0\nsamples = 1\nvalue = [0, 0, 0, 0, 1, 0]"] ;
81 -> 82 ;
83 [label="X[8] <= 0.5\ngini = 0.245\nsamples = 7\nvalue = [0, 1, 0, 0, 0, 6]"] ;
81 -> 83 ;
84 [label="gini = 0.0\nsamples = 6\nvalue = [0, 0, 0, 0, 0, 6]"] ;
83 -> 84 ;
85 [label="gini = 0.0\nsamples = 1\nvalue = [0, 1, 0, 0, 0, 0]"] ;
83 -> 85 ;
86 [label="gini = 0.0\nsamples = 1\nvalue = [0, 0, 0, 0, 1, 0]"] ;
74 -> 86 ;
87 [label="X[0] <= 0.5\ngini = 0.741\nsamples = 9\nvalue = [2, 3, 2, 0, 2, 0]"] ;
35 -> 87 ;
88 [label="X[4] <= 42.5\ngini = 0.611\nsamples = 6\nvalue = [1, 3, 0, 0, 2, 0]"] ;
87 -> 88 ;
89 [label="gini = 0.0\nsamples = 3\nvalue = [0, 3, 0, 0, 0, 0]"] ;
88 -> 89 ;
90 [label="X[3] <= 4.5\ngini = 0.444\nsamples = 3\nvalue = [1, 0, 0, 0, 2, 0]"] ;
88 -> 90 ;
91 [label="gini = 0.0\nsamples = 1\nvalue = [1, 0, 0, 0, 0, 0]"] ;
90 -> 91 ;
92 [label="gini = 0.0\nsamples = 2\nvalue = [0, 0, 0, 0, 2, 0]"] ;
90 -> 92 ;
93 [label="X[3] <= 9.5\ngini = 0.444\nsamples = 3\nvalue = [1, 0, 2, 0, 0, 0]"] ;
87 -> 93 ;
94 [label="gini = 0.0\nsamples = 1\nvalue = [0, 0, 1, 0, 0, 0]"] ;
93 -> 94 ;
95 [label="X[4] <= 31.5\ngini = 0.5\nsamples = 2\nvalue = [1, 0, 1, 0, 0, 0]"] ;
93 -> 95 ;
96 [label="gini = 0.0\nsamples = 1\nvalue = [1, 0, 0, 0, 0, 0]"] ;
95 -> 96 ;
97 [label="gini = 0.0\nsamples = 1\nvalue = [0, 0, 1, 0, 0, 0]"] ;
95 -> 97 ;
98 [label="X[12] <= 0.5\ngini = 0.244\nsamples = 22\nvalue = [0, 19, 0, 2, 1, 0]"] ;
6 -> 98 ;
99 [label="X[4] <= 560.0\ngini = 0.177\nsamples = 21\nvalue = [0, 19, 0, 1, 1, 0]"] ;
98 -> 99 ;
100 [label="X[4] <= 125.0\ngini = 0.1\nsamples = 19\nvalue = [0, 18, 0, 1, 0, 0]"] ;
99 -> 100 ;
101 [label="X[1] <= 0.5\ngini = 0.444\nsamples = 3\nvalue = [0, 2, 0, 1, 0, 0]"] ;
100 -> 101 ;
102 [label="gini = 0.0\nsamples = 2\nvalue = [0, 2, 0, 0, 0, 0]"] ;
101 -> 102 ;
103 [label="gini = 0.0\nsamples = 1\nvalue = [0, 0, 0, 1, 0, 0]"] ;
101 -> 103 ;
104 [label="gini = 0.0\nsamples = 16\nvalue = [0, 16, 0, 0, 0, 0]"] ;
100 -> 104 ;
105 [label="X[2] <= 0.5\ngini = 0.5\nsamples = 2\nvalue = [0, 1, 0, 0, 1, 0]"] ;
99 -> 105 ;
106 [label="gini = 0.0\nsamples = 1\nvalue = [0, 1, 0, 0, 0, 0]"] ;
105 -> 106 ;
107 [label="gini = 0.0\nsamples = 1\nvalue = [0, 0, 0, 0, 1, 0]"] ;
105 -> 107 ;
108 [label="gini = 0.0\nsamples = 1\nvalue = [0, 0, 0, 1, 0, 0]"] ;
98 -> 108 ;
109 [label="X[13] <= 0.5\ngini = 0.462\nsamples = 24\nvalue = [17, 4, 0, 1, 0, 2]"] ;
5 -> 109 ;
110 [label="X[10] <= 0.5\ngini = 0.384\nsamples = 22\nvalue = [17, 2, 0, 1, 0, 2]"] ;
109 -> 110 ;
111 [label="X[3] <= 5.5\ngini = 0.331\nsamples = 21\nvalue = [17, 1, 0, 1, 0, 2]"] ;
110 -> 111 ;
112 [label="X[3] <= 2.5\ngini = 0.514\nsamples = 12\nvalue = [8, 1, 0, 1, 0, 2]"] ;
111 -> 112 ;
113 [label="gini = 0.0\nsamples = 6\nvalue = [6, 0, 0, 0, 0, 0]"] ;
112 -> 113 ;
114 [label="X[16] <= 0.5\ngini = 0.722\nsamples = 6\nvalue = [2, 1, 0, 1, 0, 2]"] ;
112 -> 114 ;
115 [label="X[4] <= 41.0\ngini = 0.64\nsamples = 5\nvalue = [2, 1, 0, 0, 0, 2]"] ;
114 -> 115 ;
116 [label="X[4] <= 21.0\ngini = 0.5\nsamples = 2\nvalue = [0, 1, 0, 0, 0, 1]"] ;
115 -> 116 ;
117 [label="gini = 0.0\nsamples = 1\nvalue = [0, 0, 0, 0, 0, 1]"] ;
116 -> 117 ;
118 [label="gini = 0.0\nsamples = 1\nvalue = [0, 1, 0, 0, 0, 0]"] ;
116 -> 118 ;
119 [label="X[9] <= 0.5\ngini = 0.444\nsamples = 3\nvalue = [2, 0, 0, 0, 0, 1]"] ;
115 -> 119 ;
120 [label="gini = 0.0\nsamples = 2\nvalue = [2, 0, 0, 0, 0, 0]"] ;
119 -> 120 ;
121 [label="gini = 0.0\nsamples = 1\nvalue = [0, 0, 0, 0, 0, 1]"] ;
119 -> 121 ;
122 [label="gini = 0.0\nsamples = 1\nvalue = [0, 0, 0, 1, 0, 0]"] ;
114 -> 122 ;
123 [label="gini = 0.0\nsamples = 9\nvalue = [9, 0, 0, 0, 0, 0]"] ;
111 -> 123 ;
124 [label="gini = 0.0\nsamples = 1\nvalue = [0, 1, 0, 0, 0, 0]"] ;
110 -> 124 ;
125 [label="gini = 0.0\nsamples = 2\nvalue = [0, 2, 0, 0, 0, 0]"] ;
109 -> 125 ;
126 [label="X[7] <= 0.5\ngini = 0.309\nsamples = 298\nvalue = [10, 17, 0, 3, 22, 246]"] ;
4 -> 126 ;
127 [label="X[5] <= 6.5\ngini = 0.295\nsamples = 295\nvalue = [7, 17, 0, 3, 22, 246]"] ;
126 -> 127 ;
128 [label="X[4] <= 105.5\ngini = 0.248\nsamples = 264\nvalue = [6, 15, 0, 3, 12, 228]"] ;
127 -> 128 ;
129 [label="X[2] <= 0.5\ngini = 0.243\nsamples = 263\nvalue = [6, 15, 0, 3, 11, 228]"] ;
128 -> 129 ;
130 [label="X[4] <= 61.0\ngini = 0.054\nsamples = 36\nvalue = [0, 1, 0, 0, 0, 35]"] ;
129 -> 130 ;
131 [label="gini = 0.0\nsamples = 33\nvalue = [0, 0, 0, 0, 0, 33]"] ;
130 -> 131 ;
132 [label="X[4] <= 68.0\ngini = 0.444\nsamples = 3\nvalue = [0, 1, 0, 0, 0, 2]"] ;
130 -> 132 ;
133 [label="gini = 0.0\nsamples = 1\nvalue = [0, 1, 0, 0, 0, 0]"] ;
132 -> 133 ;
134 [label="gini = 0.0\nsamples = 2\nvalue = [0, 0, 0, 0, 0, 2]"] ;
132 -> 134 ;
135 [label="X[8] <= 0.5\ngini = 0.27\nsamples = 227\nvalue = [6, 14, 0, 3, 11, 193]"] ;
129 -> 135 ;
136 [label="X[15] <= 0.5\ngini = 0.246\nsamples = 200\nvalue = [5, 10, 0, 3, 9, 173]"] ;
135 -> 136 ;
137 [label="X[5] <= 4.5\ngini = 0.223\nsamples = 181\nvalue = [4, 9, 0, 1, 8, 159]"] ;
136 -> 137 ;
138 [label="X[5] <= 3.5\ngini = 0.167\nsamples = 124\nvalue = [2, 6, 0, 1, 2, 113]"] ;
137 -> 138 ;
139 [label="X[17] <= 0.5\ngini = 0.217\nsamples = 85\nvalue = [2, 5, 0, 1, 2, 75]"] ;
138 -> 139 ;
140 [label="X[3] <= 3.5\ngini = 0.189\nsamples = 79\nvalue = [2, 4, 0, 1, 1, 71]"] ;
139 -> 140 ;
141 [label="gini = 0.0\nsamples = 21\nvalue = [0, 0, 0, 0, 0, 21]"] ;
140 -> 141 ;
142 [label="gini = 0.25\nsamples = 58\nvalue = [2, 4, 0, 1, 1, 50]"] ;
140 -> 142 ;
143 [label="X[3] <= 4.5\ngini = 0.5\nsamples = 6\nvalue = [0, 1, 0, 0, 1, 4]"] ;
139 -> 143 ;
144 [label="gini = 0.5\nsamples = 2\nvalue = [0, 1, 0, 0, 1, 0]"] ;
143 -> 144 ;
145 [label="gini = 0.0\nsamples = 4\nvalue = [0, 0, 0, 0, 0, 4]"] ;
143 -> 145 ;
146 [label="X[11] <= 0.5\ngini = 0.05\nsamples = 39\nvalue = [0, 1, 0, 0, 0, 38]"] ;
138 -> 146 ;
147 [label="gini = 0.0\nsamples = 37\nvalue = [0, 0, 0, 0, 0, 37]"] ;
146 -> 147 ;
148 [label="X[4] <= 34.0\ngini = 0.5\nsamples = 2\nvalue = [0, 1, 0, 0, 0, 1]"] ;
146 -> 148 ;
149 [label="gini = 0.0\nsamples = 1\nvalue = [0, 1, 0, 0, 0, 0]"] ;
148 -> 149 ;
150 [label="gini = 0.0\nsamples = 1\nvalue = [0, 0, 0, 0, 0, 1]"] ;
148 -> 150 ;
151 [label="X[16] <= 0.5\ngini = 0.334\nsamples = 57\nvalue = [2, 3, 0, 0, 6, 46]"] ;
137 -> 151 ;
152 [label="X[4] <= 7.5\ngini = 0.271\nsamples = 53\nvalue = [2, 2, 0, 0, 4, 45]"] ;
151 -> 152 ;
153 [label="gini = 0.0\nsamples = 1\nvalue = [0, 0, 0, 0, 1, 0]"] ;
152 -> 153 ;
154 [label="X[13] <= 0.5\ngini = 0.245\nsamples = 52\nvalue = [2, 2, 0, 0, 3, 45]"] ;
152 -> 154 ;
155 [label="gini = 0.194\nsamples = 48\nvalue = [2, 2, 0, 0, 1, 43]"] ;
154 -> 155 ;
156 [label="gini = 0.5\nsamples = 4\nvalue = [0, 0, 0, 0, 2, 2]"] ;
154 -> 156 ;
157 [label="X[0] <= 0.5\ngini = 0.625\nsamples = 4\nvalue = [0, 1, 0, 0, 2, 1]"] ;
151 -> 157 ;
158 [label="X[3] <= 3.0\ngini = 0.5\nsamples = 2\nvalue = [0, 1, 0, 0, 0, 1]"] ;
157 -> 158 ;
159 [label="gini = 0.0\nsamples = 1\nvalue = [0, 0, 0, 0, 0, 1]"] ;
158 -> 159 ;
160 [label="gini = 0.0\nsamples = 1\nvalue = [0, 1, 0, 0, 0, 0]"] ;
158 -> 160 ;
161 [label="gini = 0.0\nsamples = 2\nvalue = [0, 0, 0, 0, 2, 0]"] ;
157 -> 161 ;
162 [label="X[4] <= 24.5\ngini = 0.438\nsamples = 19\nvalue = [1, 1, 0, 2, 1, 14]"] ;
136 -> 162 ;
163 [label="X[0] <= 0.5\ngini = 0.72\nsamples = 5\nvalue = [1, 0, 0, 1, 1, 2]"] ;
162 -> 163 ;
164 [label="X[4] <= 18.5\ngini = 0.444\nsamples = 3\nvalue = [0, 0, 0, 0, 1, 2]"] ;
163 -> 164 ;
165 [label="gini = 0.0\nsamples = 2\nvalue = [0, 0, 0, 0, 0, 2]"] ;
164 -> 165 ;
166 [label="gini = 0.0\nsamples = 1\nvalue = [0, 0, 0, 0, 1, 0]"] ;
164 -> 166 ;
167 [label="X[5] <= 4.0\ngini = 0.5\nsamples = 2\nvalue = [1, 0, 0, 1, 0, 0]"] ;
163 -> 167 ;
168 [label="gini = 0.0\nsamples = 1\nvalue = [1, 0, 0, 0, 0, 0]"] ;
167 -> 168 ;
169 [label="gini = 0.0\nsamples = 1\nvalue = [0, 0, 0, 1, 0, 0]"] ;
167 -> 169 ;
170 [label="X[0] <= 0.5\ngini = 0.255\nsamples = 14\nvalue = [0, 1, 0, 1, 0, 12]"] ;
162 -> 170 ;
171 [label="gini = 0.0\nsamples = 7\nvalue = [0, 0, 0, 0, 0, 7]"] ;
170 -> 171 ;
172 [label="X[5] <= 2.5\ngini = 0.449\nsamples = 7\nvalue = [0, 1, 0, 1, 0, 5]"] ;
170 -> 172 ;
173 [label="gini = 0.0\nsamples = 1\nvalue = [0, 1, 0, 0, 0, 0]"] ;
172 -> 173 ;
174 [label="X[1] <= 0.5\ngini = 0.278\nsamples = 6\nvalue = [0, 0, 0, 1, 0, 5]"] ;
172 -> 174 ;
175 [label="gini = 0.5\nsamples = 2\nvalue = [0, 0, 0, 1, 0, 1]"] ;
174 -> 175 ;
176 [label="gini = 0.0\nsamples = 4\nvalue = [0, 0, 0, 0, 0, 4]"] ;
174 -> 176 ;
177 [label="X[4] <= 9.5\ngini = 0.422\nsamples = 27\nvalue = [1, 4, 0, 0, 2, 20]"] ;
135 -> 177 ;
178 [label="gini = 0.0\nsamples = 1\nvalue = [0, 1, 0, 0, 0, 0]"] ;
177 -> 178 ;
179 [label="X[3] <= 9.5\ngini = 0.388\nsamples = 26\nvalue = [1, 3, 0, 0, 2, 20]"] ;
177 -> 179 ;
180 [label="X[3] <= 5.5\ngini = 0.346\nsamples = 25\nvalue = [1, 2, 0, 0, 2, 20]"] ;
179 -> 180 ;
181 [label="X[4] <= 21.5\ngini = 0.219\nsamples = 16\nvalue = [0, 2, 0, 0, 0, 14]"] ;
180 -> 181 ;
182 [label="X[4] <= 15.5\ngini = 0.408\nsamples = 7\nvalue = [0, 2, 0, 0, 0, 5]"] ;
181 -> 182 ;
183 [label="gini = 0.278\nsamples = 6\nvalue = [0, 1, 0, 0, 0, 5]"] ;
182 -> 183 ;
184 [label="gini = 0.0\nsamples = 1\nvalue = [0, 1, 0, 0, 0, 0]"] ;
182 -> 184 ;
185 [label="gini = 0.0\nsamples = 9\nvalue = [0, 0, 0, 0, 0, 9]"] ;
181 -> 185 ;
186 [label="X[1] <= 0.5\ngini = 0.494\nsamples = 9\nvalue = [1, 0, 0, 0, 2, 6]"] ;
180 -> 186 ;
187 [label="X[3] <= 8.5\ngini = 0.64\nsamples = 5\nvalue = [1, 0, 0, 0, 2, 2]"] ;
186 -> 187 ;
188 [label="gini = 0.5\nsamples = 4\nvalue = [0, 0, 0, 0, 2, 2]"] ;
187 -> 188 ;
189 [label="gini = 0.0\nsamples = 1\nvalue = [1, 0, 0, 0, 0, 0]"] ;
187 -> 189 ;
190 [label="gini = 0.0\nsamples = 4\nvalue = [0, 0, 0, 0, 0, 4]"] ;
186 -> 190 ;
191 [label="gini = 0.0\nsamples = 1\nvalue = [0, 1, 0, 0, 0, 0]"] ;
179 -> 191 ;
192 [label="gini = 0.0\nsamples = 1\nvalue = [0, 0, 0, 0, 1, 0]"] ;
128 -> 192 ;
193 [label="X[4] <= 35.0\ngini = 0.554\nsamples = 31\nvalue = [1, 2, 0, 0, 10, 18]"] ;
127 -> 193 ;
194 [label="X[4] <= 28.5\ngini = 0.621\nsamples = 21\nvalue = [1, 2, 0, 0, 9, 9]"] ;
193 -> 194 ;
195 [label="X[11] <= 0.5\ngini = 0.43\nsamples = 11\nvalue = [1, 0, 0, 0, 2, 8]"] ;
194 -> 195 ;
196 [label="X[14] <= 0.5\ngini = 0.32\nsamples = 10\nvalue = [0, 0, 0, 0, 2, 8]"] ;
195 -> 196 ;
197 [label="X[8] <= 0.5\ngini = 0.198\nsamples = 9\nvalue = [0, 0, 0, 0, 1, 8]"] ;
196 -> 197 ;
198 [label="gini = 0.0\nsamples = 7\nvalue = [0, 0, 0, 0, 0, 7]"] ;
197 -> 198 ;
199 [label="X[2] <= 0.5\ngini = 0.5\nsamples = 2\nvalue = [0, 0, 0, 0, 1, 1]"] ;
197 -> 199 ;
200 [label="gini = 0.0\nsamples = 1\nvalue = [0, 0, 0, 0, 0, 1]"] ;
199 -> 200 ;
201 [label="gini = 0.0\nsamples = 1\nvalue = [0, 0, 0, 0, 1, 0]"] ;
199 -> 201 ;
202 [label="gini = 0.0\nsamples = 1\nvalue = [0, 0, 0, 0, 1, 0]"] ;
196 -> 202 ;
203 [label="gini = 0.0\nsamples = 1\nvalue = [1, 0, 0, 0, 0, 0]"] ;
195 -> 203 ;
204 [label="X[8] <= 0.5\ngini = 0.46\nsamples = 10\nvalue = [0, 2, 0, 0, 7, 1]"] ;
194 -> 204 ;
205 [label="X[16] <= 0.5\ngini = 0.37\nsamples = 9\nvalue = [0, 1, 0, 0, 7, 1]"] ;
204 -> 205 ;
206 [label="X[3] <= 2.5\ngini = 0.245\nsamples = 7\nvalue = [0, 0, 0, 0, 6, 1]"] ;
205 -> 206 ;
207 [label="gini = 0.0\nsamples = 1\nvalue = [0, 0, 0, 0, 0, 1]"] ;
206 -> 207 ;
208 [label="gini = 0.0\nsamples = 6\nvalue = [0, 0, 0, 0, 6, 0]"] ;
206 -> 208 ;
209 [label="X[1] <= 0.5\ngini = 0.5\nsamples = 2\nvalue = [0, 1, 0, 0, 1, 0]"] ;
205 -> 209 ;
210 [label="gini = 0.0\nsamples = 1\nvalue = [0, 0, 0, 0, 1, 0]"] ;
209 -> 210 ;
211 [label="gini = 0.0\nsamples = 1\nvalue = [0, 1, 0, 0, 0, 0]"] ;
209 -> 211 ;
212 [label="gini = 0.0\nsamples = 1\nvalue = [0, 1, 0, 0, 0, 0]"] ;
204 -> 212 ;
213 [label="X[9] <= 0.5\ngini = 0.18\nsamples = 10\nvalue = [0, 0, 0, 0, 1, 9]"] ;
193 -> 213 ;
214 [label="gini = 0.0\nsamples = 9\nvalue = [0, 0, 0, 0, 0, 9]"] ;
213 -> 214 ;
215 [label="gini = 0.0\nsamples = 1\nvalue = [0, 0, 0, 0, 1, 0]"] ;
213 -> 215 ;
216 [label="gini = 0.0\nsamples = 3\nvalue = [3, 0, 0, 0, 0, 0]"] ;
126 -> 216 ;
217 [label="X[7] <= 0.5\ngini = 0.712\nsamples = 138\nvalue = [10, 7, 2, 23, 58, 38]"] ;
3 -> 217 ;
218 [label="X[5] <= 9.5\ngini = 0.694\nsamples = 133\nvalue = [5, 7, 2, 23, 58, 38]"] ;
217 -> 218 ;
219 [label="X[4] <= 14.5\ngini = 0.62\nsamples = 58\nvalue = [2, 4, 1, 1, 27, 23]"] ;
218 -> 219 ;
220 [label="X[4] <= 9.5\ngini = 0.165\nsamples = 11\nvalue = [1, 0, 0, 0, 10, 0]"] ;
219 -> 220 ;
221 [label="gini = 0.0\nsamples = 1\nvalue = [1, 0, 0, 0, 0, 0]"] ;
220 -> 221 ;
222 [label="gini = 0.0\nsamples = 10\nvalue = [0, 0, 0, 0, 10, 0]"] ;
220 -> 222 ;
223 [label="X[4] <= 19.0\ngini = 0.621\nsamples = 47\nvalue = [1, 4, 1, 1, 17, 23]"] ;
219 -> 223 ;
224 [label="gini = 0.0\nsamples = 3\nvalue = [0, 0, 0, 0, 0, 3]"] ;
223 -> 224 ;
225 [label="X[4] <= 39.0\ngini = 0.634\nsamples = 44\nvalue = [1, 4, 1, 1, 17, 20]"] ;
223 -> 225 ;
226 [label="X[4] <= 36.5\ngini = 0.675\nsamples = 25\nvalue = [1, 4, 1, 0, 11, 8]"] ;
225 -> 226 ;
227 [label="X[3] <= 2.5\ngini = 0.649\nsamples = 24\nvalue = [0, 4, 1, 0, 11, 8]"] ;
226 -> 227 ;
228 [label="gini = 0.0\nsamples = 3\nvalue = [0, 0, 0, 0, 3, 0]"] ;
227 -> 228 ;
229 [label="X[8] <= 0.5\ngini = 0.671\nsamples = 21\nvalue = [0, 4, 1, 0, 8, 8]"] ;
227 -> 229 ;
230 [label="X[3] <= 3.5\ngini = 0.64\nsamples = 20\nvalue = [0, 4, 0, 0, 8, 8]"] ;
229 -> 230 ;
231 [label="gini = 0.0\nsamples = 1\nvalue = [0, 1, 0, 0, 0, 0]"] ;
230 -> 231 ;
232 [label="X[11] <= 0.5\ngini = 0.62\nsamples = 19\nvalue = [0, 3, 0, 0, 8, 8]"] ;
230 -> 232 ;
233 [label="X[9] <= 0.5\ngini = 0.594\nsamples = 16\nvalue = [0, 2, 0, 0, 8, 6]"] ;
232 -> 233 ;
234 [label="gini = 0.569\nsamples = 12\nvalue = [0, 2, 0, 0, 7, 3]"] ;
233 -> 234 ;
235 [label="gini = 0.375\nsamples = 4\nvalue = [0, 0, 0, 0, 1, 3]"] ;
233 -> 235 ;
236 [label="X[4] <= 30.0\ngini = 0.444\nsamples = 3\nvalue = [0, 1, 0, 0, 0, 2]"] ;
232 -> 236 ;
237 [label="gini = 0.0\nsamples = 2\nvalue = [0, 0, 0, 0, 0, 2]"] ;
236 -> 237 ;
238 [label="gini = 0.0\nsamples = 1\nvalue = [0, 1, 0, 0, 0, 0]"] ;
236 -> 238 ;
239 [label="gini = 0.0\nsamples = 1\nvalue = [0, 0, 1, 0, 0, 0]"] ;
229 -> 239 ;
240 [label="gini = 0.0\nsamples = 1\nvalue = [1, 0, 0, 0, 0, 0]"] ;
226 -> 240 ;
241 [label="X[2] <= 0.5\ngini = 0.499\nsamples = 19\nvalue = [0, 0, 0, 1, 6, 12]"] ;
225 -> 241 ;
242 [label="gini = 0.0\nsamples = 1\nvalue = [0, 0, 0, 1, 0, 0]"] ;
241 -> 242 ;
243 [label="X[4] <= 53.5\ngini = 0.444\nsamples = 18\nvalue = [0, 0, 0, 0, 6, 12]"] ;
241 -> 243 ;
244 [label="gini = 0.0\nsamples = 4\nvalue = [0, 0, 0, 0, 0, 4]"] ;
243 -> 244 ;
245 [label="X[11] <= 0.5\ngini = 0.49\nsamples = 14\nvalue = [0, 0, 0, 0, 6, 8]"] ;
243 -> 245 ;
246 [label="X[4] <= 54.5\ngini = 0.444\nsamples = 12\nvalue = [0, 0, 0, 0, 4, 8]"] ;
245 -> 246 ;
247 [label="gini = 0.0\nsamples = 1\nvalue = [0, 0, 0, 0, 1, 0]"] ;
246 -> 247 ;
248 [label="X[5] <= 8.5\ngini = 0.397\nsamples = 11\nvalue = [0, 0, 0, 0, 3, 8]"] ;
246 -> 248 ;
249 [label="X[3] <= 7.5\ngini = 0.245\nsamples = 7\nvalue = [0, 0, 0, 0, 1, 6]"] ;
248 -> 249 ;
250 [label="gini = 0.0\nsamples = 6\nvalue = [0, 0, 0, 0, 0, 6]"] ;
249 -> 250 ;
251 [label="gini = 0.0\nsamples = 1\nvalue = [0, 0, 0, 0, 1, 0]"] ;
249 -> 251 ;
252 [label="X[3] <= 8.0\ngini = 0.5\nsamples = 4\nvalue = [0, 0, 0, 0, 2, 2]"] ;
248 -> 252 ;
253 [label="gini = 0.0\nsamples = 2\nvalue = [0, 0, 0, 0, 2, 0]"] ;
252 -> 253 ;
254 [label="gini = 0.0\nsamples = 2\nvalue = [0, 0, 0, 0, 0, 2]"] ;
252 -> 254 ;
255 [label="gini = 0.0\nsamples = 2\nvalue = [0, 0, 0, 0, 2, 0]"] ;
245 -> 255 ;
256 [label="X[4] <= 21.5\ngini = 0.7\nsamples = 75\nvalue = [3, 3, 1, 22, 31, 15]"] ;
218 -> 256 ;
257 [label="X[3] <= 6.5\ngini = 0.616\nsamples = 23\nvalue = [2, 1, 0, 13, 5, 2]"] ;
256 -> 257 ;
258 [label="X[18] <= 0.5\ngini = 0.628\nsamples = 11\nvalue = [2, 1, 0, 6, 0, 2]"] ;
257 -> 258 ;
259 [label="X[15] <= 0.5\ngini = 0.58\nsamples = 10\nvalue = [2, 1, 0, 6, 0, 1]"] ;
258 -> 259 ;
260 [label="X[11] <= 0.5\ngini = 0.494\nsamples = 9\nvalue = [2, 1, 0, 6, 0, 0]"] ;
259 -> 260 ;
261 [label="X[4] <= 20.5\ngini = 0.406\nsamples = 8\nvalue = [1, 1, 0, 6, 0, 0]"] ;
260 -> 261 ;
262 [label="gini = 0.0\nsamples = 5\nvalue = [0, 0, 0, 5, 0, 0]"] ;
261 -> 262 ;
263 [label="X[8] <= 0.5\ngini = 0.667\nsamples = 3\nvalue = [1, 1, 0, 1, 0, 0]"] ;
261 -> 263 ;
264 [label="X[2] <= 0.5\ngini = 0.5\nsamples = 2\nvalue = [1, 1, 0, 0, 0, 0]"] ;
263 -> 264 ;
265 [label="gini = 0.0\nsamples = 1\nvalue = [0, 1, 0, 0, 0, 0]"] ;
264 -> 265 ;
266 [label="gini = 0.0\nsamples = 1\nvalue = [1, 0, 0, 0, 0, 0]"] ;
264 -> 266 ;
267 [label="gini = 0.0\nsamples = 1\nvalue = [0, 0, 0, 1, 0, 0]"] ;
263 -> 267 ;
268 [label="gini = 0.0\nsamples = 1\nvalue = [1, 0, 0, 0, 0, 0]"] ;
260 -> 268 ;
269 [label="gini = 0.0\nsamples = 1\nvalue = [0, 0, 0, 0, 0, 1]"] ;
259 -> 269 ;
270 [label="gini = 0.0\nsamples = 1\nvalue = [0, 0, 0, 0, 0, 1]"] ;
258 -> 270 ;
271 [label="X[10] <= 0.5\ngini = 0.486\nsamples = 12\nvalue = [0, 0, 0, 7, 5, 0]"] ;
257 -> 271 ;
272 [label="X[1] <= 0.5\ngini = 0.463\nsamples = 11\nvalue = [0, 0, 0, 7, 4, 0]"] ;
271 -> 272 ;
273 [label="X[4] <= 19.0\ngini = 0.278\nsamples = 6\nvalue = [0, 0, 0, 5, 1, 0]"] ;
272 -> 273 ;
274 [label="gini = 0.0\nsamples = 5\nvalue = [0, 0, 0, 5, 0, 0]"] ;
273 -> 274 ;
275 [label="gini = 0.0\nsamples = 1\nvalue = [0, 0, 0, 0, 1, 0]"] ;
273 -> 275 ;
276 [label="X[14] <= 0.5\ngini = 0.48\nsamples = 5\nvalue = [0, 0, 0, 2, 3, 0]"] ;
272 -> 276 ;
277 [label="X[4] <= 15.0\ngini = 0.375\nsamples = 4\nvalue = [0, 0, 0, 1, 3, 0]"] ;
276 -> 277 ;
278 [label="gini = 0.0\nsamples = 2\nvalue = [0, 0, 0, 0, 2, 0]"] ;
277 -> 278 ;
279 [label="X[13] <= 0.5\ngini = 0.5\nsamples = 2\nvalue = [0, 0, 0, 1, 1, 0]"] ;
277 -> 279 ;
280 [label="gini = 0.0\nsamples = 1\nvalue = [0, 0, 0, 1, 0, 0]"] ;
279 -> 280 ;
281 [label="gini = 0.0\nsamples = 1\nvalue = [0, 0, 0, 0, 1, 0]"] ;
279 -> 281 ;
282 [label="gini = 0.0\nsamples = 1\nvalue = [0, 0, 0, 1, 0, 0]"] ;
276 -> 282 ;
283 [label="gini = 0.0\nsamples = 1\nvalue = [0, 0, 0, 0, 1, 0]"] ;
271 -> 283 ;
284 [label="X[4] <= 108.0\ngini = 0.655\nsamples = 52\nvalue = [1, 2, 1, 9, 26, 13]"] ;
256 -> 284 ;
285 [label="X[3] <= 8.5\ngini = 0.629\nsamples = 50\nvalue = [1, 1, 0, 9, 26, 13]"] ;
284 -> 285 ;
286 [label="X[4] <= 40.5\ngini = 0.67\nsamples = 40\nvalue = [1, 1, 0, 9, 18, 11]"] ;
285 -> 286 ;
287 [label="X[4] <= 31.5\ngini = 0.672\nsamples = 16\nvalue = [0, 1, 0, 7, 5, 3]"] ;
286 -> 287 ;
288 [label="X[3] <= 4.5\ngini = 0.694\nsamples = 12\nvalue = [0, 1, 0, 3, 5, 3]"] ;
287 -> 288 ;
289 [label="X[9] <= 0.5\ngini = 0.449\nsamples = 7\nvalue = [0, 0, 0, 1, 5, 1]"] ;
288 -> 289 ;
290 [label="X[14] <= 0.5\ngini = 0.278\nsamples = 6\nvalue = [0, 0, 0, 0, 5, 1]"] ;
289 -> 290 ;
291 [label="gini = 0.0\nsamples = 5\nvalue = [0, 0, 0, 0, 5, 0]"] ;
290 -> 291 ;
292 [label="gini = 0.0\nsamples = 1\nvalue = [0, 0, 0, 0, 0, 1]"] ;
290 -> 292 ;
293 [label="gini = 0.0\nsamples = 1\nvalue = [0, 0, 0, 1, 0, 0]"] ;
289 -> 293 ;
294 [label="X[4] <= 30.5\ngini = 0.64\nsamples = 5\nvalue = [0, 1, 0, 2, 0, 2]"] ;
288 -> 294 ;
295 [label="X[12] <= 0.5\ngini = 0.5\nsamples = 4\nvalue = [0, 0, 0, 2, 0, 2]"] ;
294 -> 295 ;
296 [label="X[4] <= 24.0\ngini = 0.444\nsamples = 3\nvalue = [0, 0, 0, 2, 0, 1]"] ;
295 -> 296 ;
297 [label="gini = 0.0\nsamples = 1\nvalue = [0, 0, 0, 0, 0, 1]"] ;
296 -> 297 ;
298 [label="gini = 0.0\nsamples = 2\nvalue = [0, 0, 0, 2, 0, 0]"] ;
296 -> 298 ;
299 [label="gini = 0.0\nsamples = 1\nvalue = [0, 0, 0, 0, 0, 1]"] ;
295 -> 299 ;
300 [label="gini = 0.0\nsamples = 1\nvalue = [0, 1, 0, 0, 0, 0]"] ;
294 -> 300 ;
301 [label="gini = 0.0\nsamples = 4\nvalue = [0, 0, 0, 4, 0, 0]"] ;
287 -> 301 ;
302 [label="X[0] <= 0.5\ngini = 0.587\nsamples = 24\nvalue = [1, 0, 0, 2, 13, 8]"] ;
286 -> 302 ;
303 [label="X[8] <= 0.5\ngini = 0.556\nsamples = 13\nvalue = [0, 0, 0, 1, 5, 7]"] ;
302 -> 303 ;
304 [label="X[19] <= 0.5\ngini = 0.512\nsamples = 11\nvalue = [0, 0, 0, 1, 3, 7]"] ;
303 -> 304 ;
305 [label="X[10] <= 0.5\ngini = 0.346\nsamples = 9\nvalue = [0, 0, 0, 0, 2, 7]"] ;
304 -> 305 ;
306 [label="gini = 0.0\nsamples = 6\nvalue = [0, 0, 0, 0, 0, 6]"] ;
305 -> 306 ;
307 [label="X[5] <= 10.5\ngini = 0.444\nsamples = 3\nvalue = [0, 0, 0, 0, 2, 1]"] ;
305 -> 307 ;
308 [label="gini = 0.0\nsamples = 1\nvalue = [0, 0, 0, 0, 0, 1]"] ;
307 -> 308 ;
309 [label="gini = 0.0\nsamples = 2\nvalue = [0, 0, 0, 0, 2, 0]"] ;
307 -> 309 ;
310 [label="X[5] <= 11.0\ngini = 0.5\nsamples = 2\nvalue = [0, 0, 0, 1, 1, 0]"] ;
304 -> 310 ;
311 [label="gini = 0.0\nsamples = 1\nvalue = [0, 0, 0, 0, 1, 0]"] ;
310 -> 311 ;
312 [label="gini = 0.0\nsamples = 1\nvalue = [0, 0, 0, 1, 0, 0]"] ;
310 -> 312 ;
313 [label="gini = 0.0\nsamples = 2\nvalue = [0, 0, 0, 0, 2, 0]"] ;
303 -> 313 ;
314 [label="X[15] <= 0.5\ngini = 0.446\nsamples = 11\nvalue = [1, 0, 0, 1, 8, 1]"] ;
302 -> 314 ;
315 [label="X[18] <= 0.5\ngini = 0.198\nsamples = 9\nvalue = [1, 0, 0, 0, 8, 0]"] ;
314 -> 315 ;
316 [label="gini = 0.0\nsamples = 8\nvalue = [0, 0, 0, 0, 8, 0]"] ;
315 -> 316 ;
317 [label="gini = 0.0\nsamples = 1\nvalue = [1, 0, 0, 0, 0, 0]"] ;
315 -> 317 ;
318 [label="X[4] <= 75.0\ngini = 0.5\nsamples = 2\nvalue = [0, 0, 0, 1, 0, 1]"] ;
314 -> 318 ;
319 [label="gini = 0.0\nsamples = 1\nvalue = [0, 0, 0, 1, 0, 0]"] ;
318 -> 319 ;
320 [label="gini = 0.0\nsamples = 1\nvalue = [0, 0, 0, 0, 0, 1]"] ;
318 -> 320 ;
321 [label="X[2] <= 0.5\ngini = 0.32\nsamples = 10\nvalue = [0, 0, 0, 0, 8, 2]"] ;
285 -> 321 ;
322 [label="gini = 0.0\nsamples = 2\nvalue = [0, 0, 0, 0, 0, 2]"] ;
321 -> 322 ;
323 [label="gini = 0.0\nsamples = 8\nvalue = [0, 0, 0, 0, 8, 0]"] ;
321 -> 323 ;
324 [label="X[18] <= 0.5\ngini = 0.5\nsamples = 2\nvalue = [0, 1, 1, 0, 0, 0]"] ;
284 -> 324 ;
325 [label="gini = 0.0\nsamples = 1\nvalue = [0, 1, 0, 0, 0, 0]"] ;
324 -> 325 ;
326 [label="gini = 0.0\nsamples = 1\nvalue = [0, 0, 1, 0, 0, 0]"] ;
324 -> 326 ;
327 [label="gini = 0.0\nsamples = 5\nvalue = [5, 0, 0, 0, 0, 0]"] ;
217 -> 327 ;
328 [label="X[7] <= 0.5\ngini = 0.258\nsamples = 2475\nvalue = [93, 128, 32, 50, 47, 2125]"] ;
2 -> 328 ;
329 [label="X[5] <= 7.5\ngini = 0.253\nsamples = 2466\nvalue = [86, 127, 32, 50, 47, 2124]"] ;
328 -> 329 ;
330 [label="X[4] <= 53.5\ngini = 0.243\nsamples = 2280\nvalue = [71, 113, 27, 46, 45, 1978]"] ;
329 -> 330 ;
331 [label="X[15] <= 0.5\ngini = 0.236\nsamples = 2120\nvalue = [67, 101, 27, 38, 39, 1848]"] ;
330 -> 331 ;
332 [label="X[1] <= 0.5\ngini = 0.231\nsamples = 1975\nvalue = [57, 96, 24, 36, 34, 1728]"] ;
331 -> 332 ;
333 [label="X[3] <= 9.5\ngini = 0.249\nsamples = 1108\nvalue = [40, 61, 13, 22, 15, 957]"] ;
332 -> 333 ;
334 [label="X[4] <= 17.0\ngini = 0.234\nsamples = 975\nvalue = [35, 51, 9, 20, 9, 851]"] ;
333 -> 334 ;
335 [label="X[2] <= 0.5\ngini = 0.193\nsamples = 290\nvalue = [10, 10, 0, 9, 1, 260]"] ;
334 -> 335 ;
336 [label="X[3] <= 3.5\ngini = 0.336\nsamples = 35\nvalue = [0, 2, 0, 5, 0, 28]"] ;
335 -> 336 ;
337 [label="X[10] <= 0.5\ngini = 0.142\nsamples = 13\nvalue = [0, 1, 0, 0, 0, 12]"] ;
336 -> 337 ;
338 [label="gini = 0.0\nsamples = 10\nvalue = [0, 0, 0, 0, 0, 10]"] ;
337 -> 338 ;
339 [label="X[0] <= 0.5\ngini = 0.444\nsamples = 3\nvalue = [0, 1, 0, 0, 0, 2]"] ;
337 -> 339 ;
340 [label="gini = 0.5\nsamples = 2\nvalue = [0, 1, 0, 0, 0, 1]"] ;
339 -> 340 ;
341 [label="gini = 0.0\nsamples = 1\nvalue = [0, 0, 0, 0, 0, 1]"] ;
339 -> 341 ;
342 [label="X[3] <= 4.5\ngini = 0.417\nsamples = 22\nvalue = [0, 1, 0, 5, 0, 16]"] ;
336 -> 342 ;
343 [label="X[6] <= 1.5\ngini = 0.444\nsamples = 3\nvalue = [0, 0, 0, 2, 0, 1]"] ;
342 -> 343 ;
344 [label="gini = 0.0\nsamples = 1\nvalue = [0, 0, 0, 0, 0, 1]"] ;
343 -> 344 ;
345 [label="gini = 0.0\nsamples = 2\nvalue = [0, 0, 0, 2, 0, 0]"] ;
343 -> 345 ;
346 [label="X[18] <= 0.5\ngini = 0.349\nsamples = 19\nvalue = [0, 1, 0, 3, 0, 15]"] ;
342 -> 346 ;
347 [label="X[9] <= 0.5\ngini = 0.29\nsamples = 18\nvalue = [0, 1, 0, 2, 0, 15]"] ;
346 -> 347 ;
348 [label="gini = 0.227\nsamples = 16\nvalue = [0, 1, 0, 1, 0, 14]"] ;
347 -> 348 ;
349 [label="gini = 0.5\nsamples = 2\nvalue = [0, 0, 0, 1, 0, 1]"] ;
347 -> 349 ;
350 [label="gini = 0.0\nsamples = 1\nvalue = [0, 0, 0, 1, 0, 0]"] ;
346 -> 350 ;
351 [label="X[3] <= 1.0\ngini = 0.169\nsamples = 255\nvalue = [10, 8, 0, 4, 1, 232]"] ;
335 -> 351 ;
352 [label="X[19] <= 0.5\ngini = 0.273\nsamples = 45\nvalue = [2, 5, 0, 0, 0, 38]"] ;
351 -> 352 ;
353 [label="X[20] <= 0.5\ngini = 0.221\nsamples = 41\nvalue = [2, 3, 0, 0, 0, 36]"] ;
352 -> 353 ;
354 [label="X[10] <= 0.5\ngini = 0.16\nsamples = 35\nvalue = [2, 1, 0, 0, 0, 32]"] ;
353 -> 354 ;
355 [label="gini = 0.119\nsamples = 32\nvalue = [1, 1, 0, 0, 0, 30]"] ;
354 -> 355 ;
356 [label="gini = 0.444\nsamples = 3\nvalue = [1, 0, 0, 0, 0, 2]"] ;
354 -> 356 ;
357 [label="X[5] <= 2.5\ngini = 0.444\nsamples = 6\nvalue = [0, 2, 0, 0, 0, 4]"] ;
353 -> 357 ;
358 [label="gini = 0.0\nsamples = 1\nvalue = [0, 1, 0, 0, 0, 0]"] ;
357 -> 358 ;
359 [label="gini = 0.32\nsamples = 5\nvalue = [0, 1, 0, 0, 0, 4]"] ;
357 -> 359 ;
360 [label="X[0] <= 0.5\ngini = 0.5\nsamples = 4\nvalue = [0, 2, 0, 0, 0, 2]"] ;
352 -> 360 ;
361 [label="X[6] <= 2.5\ngini = 0.444\nsamples = 3\nvalue = [0, 1, 0, 0, 0, 2]"] ;
360 -> 361 ;
362 [label="gini = 0.0\nsamples = 2\nvalue = [0, 0, 0, 0, 0, 2]"] ;
361 -> 362 ;
363 [label="gini = 0.0\nsamples = 1\nvalue = [0, 1, 0, 0, 0, 0]"] ;
361 -> 363 ;
364 [label="gini = 0.0\nsamples = 1\nvalue = [0, 1, 0, 0, 0, 0]"] ;
360 -> 364 ;
365 [label="X[5] <= 6.5\ngini = 0.145\nsamples = 210\nvalue = [8, 3, 0, 4, 1, 194]"] ;
351 -> 365 ;
366 [label="X[3] <= 4.5\ngini = 0.133\nsamples = 201\nvalue = [6, 3, 0, 4, 1, 187]"] ;
365 -> 366 ;
367 [label="X[16] <= 0.5\ngini = 0.207\nsamples = 71\nvalue = [5, 1, 0, 2, 0, 63]"] ;
366 -> 367 ;
368 [label="gini = 0.169\nsamples = 66\nvalue = [4, 1, 0, 1, 0, 60]"] ;
367 -> 368 ;
369 [label="gini = 0.56\nsamples = 5\nvalue = [1, 0, 0, 1, 0, 3]"] ;
367 -> 369 ;
370 [label="X[19] <= 0.5\ngini = 0.09\nsamples = 130\nvalue = [1, 2, 0, 2, 1, 124]"] ;
366 -> 370 ;
371 [label="gini = 0.064\nsamples = 122\nvalue = [1, 2, 0, 1, 0, 118]"] ;
370 -> 371 ;
372 [label="gini = 0.406\nsamples = 8\nvalue = [0, 0, 0, 1, 1, 6]"] ;
370 -> 372 ;
373 [label="X[9] <= 0.5\ngini = 0.346\nsamples = 9\nvalue = [2, 0, 0, 0, 0, 7]"] ;
365 -> 373 ;
374 [label="X[13] <= 0.5\ngini = 0.219\nsamples = 8\nvalue = [1, 0, 0, 0, 0, 7]"] ;
373 -> 374 ;
375 [label="gini = 0.0\nsamples = 7\nvalue = [0, 0, 0, 0, 0, 7]"] ;
374 -> 375 ;
376 [label="gini = 0.0\nsamples = 1\nvalue = [1, 0, 0, 0, 0, 0]"] ;
374 -> 376 ;
377 [label="gini = 0.0\nsamples = 1\nvalue = [1, 0, 0, 0, 0, 0]"] ;
373 -> 377 ;
378 [label="X[4] <= 30.5\ngini = 0.25\nsamples = 685\nvalue = [25, 41, 9, 11, 8, 591]"] ;
334 -> 378 ;
379 [label="X[18] <= 0.5\ngini = 0.287\nsamples = 388\nvalue = [15, 25, 8, 7, 7, 326]"] ;
378 -> 379 ;
380 [label="X[8] <= 0.5\ngini = 0.271\nsamples = 348\nvalue = [15, 20, 6, 6, 5, 296]"] ;
379 -> 380 ;
381 [label="X[6] <= 2.5\ngini = 0.256\nsamples = 292\nvalue = [12, 13, 5, 6, 5, 251]"] ;
380 -> 381 ;
382 [label="X[4] <= 24.5\ngini = 0.224\nsamples = 223\nvalue = [8, 9, 2, 4, 4, 196]"] ;
381 -> 382 ;
383 [label="gini = 0.104\nsamples = 37\nvalue = [0, 0, 1, 1, 0, 35]"] ;
382 -> 383 ;
384 [label="gini = 0.246\nsamples = 186\nvalue = [8, 9, 1, 3, 4, 161]"] ;
382 -> 384 ;
385 [label="X[12] <= 0.5\ngini = 0.355\nsamples = 69\nvalue = [4, 4, 3, 2, 1, 55]"] ;
381 -> 385 ;
386 [label="gini = 0.314\nsamples = 62\nvalue = [4, 4, 0, 2, 1, 51]"] ;
385 -> 386 ;
387 [label="gini = 0.49\nsamples = 7\nvalue = [0, 0, 3, 0, 0, 4]"] ;
385 -> 387 ;
388 [label="X[4] <= 24.0\ngini = 0.335\nsamples = 56\nvalue = [3, 7, 1, 0, 0, 45]"] ;
380 -> 388 ;
389 [label="X[6] <= 1.5\ngini = 0.617\nsamples = 9\nvalue = [1, 2, 1, 0, 0, 5]"] ;
388 -> 389 ;
390 [label="gini = 0.444\nsamples = 3\nvalue = [0, 2, 0, 0, 0, 1]"] ;
389 -> 390 ;
391 [label="gini = 0.5\nsamples = 6\nvalue = [1, 0, 1, 0, 0, 4]"] ;
389 -> 391 ;
392 [label="X[5] <= 2.5\ngini = 0.263\nsamples = 47\nvalue = [2, 5, 0, 0, 0, 40]"] ;
388 -> 392 ;
393 [label="gini = 0.0\nsamples = 13\nvalue = [0, 0, 0, 0, 0, 13]"] ;
392 -> 393 ;
394 [label="gini = 0.344\nsamples = 34\nvalue = [2, 5, 0, 0, 0, 27]"] ;
392 -> 394 ;
395 [label="X[5] <= 0.5\ngini = 0.416\nsamples = 40\nvalue = [0, 5, 2, 1, 2, 30]"] ;
379 -> 395 ;
396 [label="X[3] <= 5.0\ngini = 0.667\nsamples = 3\nvalue = [0, 0, 1, 1, 0, 1]"] ;
395 -> 396 ;
397 [label="gini = 0.0\nsamples = 1\nvalue = [0, 0, 0, 1, 0, 0]"] ;
396 -> 397 ;
398 [label="X[3] <= 6.5\ngini = 0.5\nsamples = 2\nvalue = [0, 0, 1, 0, 0, 1]"] ;
396 -> 398 ;
399 [label="gini = 0.0\nsamples = 1\nvalue = [0, 0, 1, 0, 0, 0]"] ;
398 -> 399 ;
400 [label="gini = 0.0\nsamples = 1\nvalue = [0, 0, 0, 0, 0, 1]"] ;
398 -> 400 ;
401 [label="X[0] <= 0.5\ngini = 0.364\nsamples = 37\nvalue = [0, 5, 1, 0, 2, 29]"] ;
395 -> 401 ;
402 [label="X[5] <= 4.5\ngini = 0.338\nsamples = 35\nvalue = [0, 5, 1, 0, 1, 28]"] ;
401 -> 402 ;
403 [label="gini = 0.426\nsamples = 26\nvalue = [0, 5, 1, 0, 1, 19]"] ;
402 -> 403 ;
404 [label="gini = 0.0\nsamples = 9\nvalue = [0, 0, 0, 0, 0, 9]"] ;
402 -> 404 ;
405 [label="X[2] <= 0.5\ngini = 0.5\nsamples = 2\nvalue = [0, 0, 0, 0, 1, 1]"] ;
401 -> 405 ;
406 [label="gini = 0.0\nsamples = 1\nvalue = [0, 0, 0, 0, 1, 0]"] ;
405 -> 406 ;
407 [label="gini = 0.0\nsamples = 1\nvalue = [0, 0, 0, 0, 0, 1]"] ;
405 -> 407 ;
408 [label="X[13] <= 0.5\ngini = 0.2\nsamples = 297\nvalue = [10, 16, 1, 4, 1, 265]"] ;
378 -> 408 ;
409 [label="X[16] <= 0.5\ngini = 0.182\nsamples = 276\nvalue = [9, 14, 0, 3, 1, 249]"] ;
408 -> 409 ;
410 [label="X[5] <= 4.5\ngini = 0.161\nsamples = 245\nvalue = [7, 12, 0, 1, 1, 224]"] ;
409 -> 410 ;
411 [label="X[4] <= 37.5\ngini = 0.13\nsamples = 174\nvalue = [1, 9, 0, 1, 1, 162]"] ;
410 -> 411 ;
412 [label="gini = 0.075\nsamples = 130\nvalue = [1, 3, 0, 0, 1, 125]"] ;
411 -> 412 ;
413 [label="gini = 0.274\nsamples = 44\nvalue = [0, 6, 0, 1, 0, 37]"] ;
411 -> 413 ;
414 [label="X[14] <= 0.5\ngini = 0.229\nsamples = 71\nvalue = [6, 3, 0, 0, 0, 62]"] ;
410 -> 414 ;
415 [label="gini = 0.171\nsamples = 65\nvalue = [4, 2, 0, 0, 0, 59]"] ;
414 -> 415 ;
416 [label="gini = 0.611\nsamples = 6\nvalue = [2, 1, 0, 0, 0, 3]"] ;
414 -> 416 ;
417 [label="X[3] <= 8.5\ngini = 0.337\nsamples = 31\nvalue = [2, 2, 0, 2, 0, 25]"] ;
409 -> 417 ;
418 [label="X[4] <= 34.0\ngini = 0.304\nsamples = 29\nvalue = [1, 2, 0, 2, 0, 24]"] ;
417 -> 418 ;
419 [label="gini = 0.485\nsamples = 13\nvalue = [1, 2, 0, 1, 0, 9]"] ;
418 -> 419 ;
420 [label="gini = 0.117\nsamples = 16\nvalue = [0, 0, 0, 1, 0, 15]"] ;
418 -> 420 ;
421 [label="X[2] <= 0.5\ngini = 0.5\nsamples = 2\nvalue = [1, 0, 0, 0, 0, 1]"] ;
417 -> 421 ;
422 [label="gini = 0.0\nsamples = 1\nvalue = [0, 0, 0, 0, 0, 1]"] ;
421 -> 422 ;
423 [label="gini = 0.0\nsamples = 1\nvalue = [1, 0, 0, 0, 0, 0]"] ;
421 -> 423 ;
424 [label="X[3] <= 5.5\ngini = 0.404\nsamples = 21\nvalue = [1, 2, 1, 1, 0, 16]"] ;
408 -> 424 ;
425 [label="X[5] <= 1.0\ngini = 0.272\nsamples = 13\nvalue = [1, 0, 1, 0, 0, 11]"] ;
424 -> 425 ;
426 [label="gini = 0.0\nsamples = 1\nvalue = [0, 0, 1, 0, 0, 0]"] ;
425 -> 426 ;
427 [label="X[2] <= 0.5\ngini = 0.153\nsamples = 12\nvalue = [1, 0, 0, 0, 0, 11]"] ;
425 -> 427 ;
428 [label="gini = 0.5\nsamples = 2\nvalue = [1, 0, 0, 0, 0, 1]"] ;
427 -> 428 ;
429 [label="gini = 0.0\nsamples = 10\nvalue = [0, 0, 0, 0, 0, 10]"] ;
427 -> 429 ;
430 [label="X[4] <= 32.0\ngini = 0.531\nsamples = 8\nvalue = [0, 2, 0, 1, 0, 5]"] ;
424 -> 430 ;
431 [label="X[3] <= 7.5\ngini = 0.5\nsamples = 2\nvalue = [0, 1, 0, 1, 0, 0]"] ;
430 -> 431 ;
432 [label="gini = 0.0\nsamples = 1\nvalue = [0, 1, 0, 0, 0, 0]"] ;
431 -> 432 ;
433 [label="gini = 0.0\nsamples = 1\nvalue = [0, 0, 0, 1, 0, 0]"] ;
431 -> 433 ;
434 [label="X[6] <= 2.5\ngini = 0.278\nsamples = 6\nvalue = [0, 1, 0, 0, 0, 5]"] ;
430 -> 434 ;
435 [label="gini = 0.0\nsamples = 4\nvalue = [0, 0, 0, 0, 0, 4]"] ;
434 -> 435 ;
436 [label="gini = 0.5\nsamples = 2\nvalue = [0, 1, 0, 0, 0, 1]"] ;
434 -> 436 ;
437 [label="X[4] <= 27.5\ngini = 0.355\nsamples = 133\nvalue = [5, 10, 4, 2, 6, 106]"] ;
333 -> 437 ;
438 [label="X[10] <= 0.5\ngini = 0.246\nsamples = 81\nvalue = [2, 6, 0, 1, 2, 70]"] ;
437 -> 438 ;
439 [label="X[16] <= 0.5\ngini = 0.215\nsamples = 77\nvalue = [2, 5, 0, 1, 1, 68]"] ;
438 -> 439 ;
440 [label="X[5] <= 4.5\ngini = 0.189\nsamples = 69\nvalue = [2, 3, 0, 1, 1, 62]"] ;
439 -> 440 ;
441 [label="X[17] <= 0.5\ngini = 0.11\nsamples = 52\nvalue = [0, 2, 0, 1, 0, 49]"] ;
440 -> 441 ;
442 [label="X[13] <= 0.5\ngini = 0.081\nsamples = 48\nvalue = [0, 1, 0, 1, 0, 46]"] ;
441 -> 442 ;
443 [label="gini = 0.045\nsamples = 43\nvalue = [0, 1, 0, 0, 0, 42]"] ;
442 -> 443 ;
444 [label="gini = 0.32\nsamples = 5\nvalue = [0, 0, 0, 1, 0, 4]"] ;
442 -> 444 ;
445 [label="X[2] <= 0.5\ngini = 0.375\nsamples = 4\nvalue = [0, 1, 0, 0, 0, 3]"] ;
441 -> 445 ;
446 [label="gini = 0.0\nsamples = 1\nvalue = [0, 1, 0, 0, 0, 0]"] ;
445 -> 446 ;
447 [label="gini = 0.0\nsamples = 3\nvalue = [0, 0, 0, 0, 0, 3]"] ;
445 -> 447 ;
448 [label="X[20] <= 0.5\ngini = 0.394\nsamples = 17\nvalue = [2, 1, 0, 0, 1, 13]"] ;
440 -> 448 ;
449 [label="X[11] <= 0.5\ngini = 0.328\nsamples = 16\nvalue = [1, 1, 0, 0, 1, 13]"] ;
448 -> 449 ;
450 [label="gini = 0.255\nsamples = 14\nvalue = [1, 0, 0, 0, 1, 12]"] ;
449 -> 450 ;
451 [label="gini = 0.5\nsamples = 2\nvalue = [0, 1, 0, 0, 0, 1]"] ;
449 -> 451 ;
452 [label="gini = 0.0\nsamples = 1\nvalue = [1, 0, 0, 0, 0, 0]"] ;
448 -> 452 ;
453 [label="X[5] <= 0.5\ngini = 0.375\nsamples = 8\nvalue = [0, 2, 0, 0, 0, 6]"] ;
439 -> 453 ;
454 [label="gini = 0.0\nsamples = 1\nvalue = [0, 1, 0, 0, 0, 0]"] ;
453 -> 454 ;
455 [label="X[6] <= 1.5\ngini = 0.245\nsamples = 7\nvalue = [0, 1, 0, 0, 0, 6]"] ;
453 -> 455 ;
456 [label="X[5] <= 2.5\ngini = 0.444\nsamples = 3\nvalue = [0, 1, 0, 0, 0, 2]"] ;
455 -> 456 ;
457 [label="gini = 0.0\nsamples = 2\nvalue = [0, 0, 0, 0, 0, 2]"] ;
456 -> 457 ;
458 [label="gini = 0.0\nsamples = 1\nvalue = [0, 1, 0, 0, 0, 0]"] ;
456 -> 458 ;
459 [label="gini = 0.0\nsamples = 4\nvalue = [0, 0, 0, 0, 0, 4]"] ;
455 -> 459 ;
460 [label="X[5] <= 1.5\ngini = 0.625\nsamples = 4\nvalue = [0, 1, 0, 0, 1, 2]"] ;
438 -> 460 ;
461 [label="gini = 0.0\nsamples = 2\nvalue = [0, 0, 0, 0, 0, 2]"] ;
460 -> 461 ;
462 [label="X[5] <= 4.5\ngini = 0.5\nsamples = 2\nvalue = [0, 1, 0, 0, 1, 0]"] ;
460 -> 462 ;
463 [label="gini = 0.0\nsamples = 1\nvalue = [0, 0, 0, 0, 1, 0]"] ;
462 -> 463 ;
464 [label="gini = 0.0\nsamples = 1\nvalue = [0, 1, 0, 0, 0, 0]"] ;
462 -> 464 ;
465 [label="X[4] <= 30.5\ngini = 0.499\nsamples = 52\nvalue = [3, 4, 4, 1, 4, 36]"] ;
437 -> 465 ;
466 [label="X[0] <= 0.5\ngini = 0.76\nsamples = 11\nvalue = [2, 2, 0, 1, 2, 4]"] ;
465 -> 466 ;
467 [label="X[4] <= 29.5\ngini = 0.719\nsamples = 8\nvalue = [2, 2, 0, 1, 0, 3]"] ;
466 -> 467 ;
468 [label="X[14] <= 0.5\ngini = 0.611\nsamples = 6\nvalue = [0, 2, 0, 1, 0, 3]"] ;
467 -> 468 ;
469 [label="X[6] <= 2.5\ngini = 0.48\nsamples = 5\nvalue = [0, 2, 0, 0, 0, 3]"] ;
468 -> 469 ;
470 [label="gini = 0.444\nsamples = 3\nvalue = [0, 2, 0, 0, 0, 1]"] ;
469 -> 470 ;
471 [label="gini = 0.0\nsamples = 2\nvalue = [0, 0, 0, 0, 0, 2]"] ;
469 -> 471 ;
472 [label="gini = 0.0\nsamples = 1\nvalue = [0, 0, 0, 1, 0, 0]"] ;
468 -> 472 ;
473 [label="gini = 0.0\nsamples = 2\nvalue = [2, 0, 0, 0, 0, 0]"] ;
467 -> 473 ;
474 [label="X[5] <= 3.5\ngini = 0.444\nsamples = 3\nvalue = [0, 0, 0, 0, 2, 1]"] ;
466 -> 474 ;
475 [label="gini = 0.0\nsamples = 1\nvalue = [0, 0, 0, 0, 1, 0]"] ;
474 -> 475 ;
476 [label="gini = 0.5\nsamples = 2\nvalue = [0, 0, 0, 0, 1, 1]"] ;
474 -> 476 ;
477 [label="X[14] <= 0.5\ngini = 0.376\nsamples = 41\nvalue = [1, 2, 4, 0, 2, 32]"] ;
465 -> 477 ;
478 [label="X[10] <= 0.5\ngini = 0.295\nsamples = 36\nvalue = [0, 2, 3, 0, 1, 30]"] ;
477 -> 478 ;
479 [label="X[19] <= 0.5\ngini = 0.263\nsamples = 34\nvalue = [0, 1, 3, 0, 1, 29]"] ;
478 -> 479 ;
480 [label="X[20] <= 0.5\ngini = 0.229\nsamples = 32\nvalue = [0, 1, 2, 0, 1, 28]"] ;
479 -> 480 ;
481 [label="gini = 0.19\nsamples = 29\nvalue = [0, 1, 2, 0, 0, 26]"] ;
480 -> 481 ;
482 [label="gini = 0.444\nsamples = 3\nvalue = [0, 0, 0, 0, 1, 2]"] ;
480 -> 482 ;
483 [label="X[0] <= 0.5\ngini = 0.5\nsamples = 2\nvalue = [0, 0, 1, 0, 0, 1]"] ;
479 -> 483 ;
484 [label="gini = 0.0\nsamples = 1\nvalue = [0, 0, 0, 0, 0, 1]"] ;
483 -> 484 ;
485 [label="gini = 0.0\nsamples = 1\nvalue = [0, 0, 1, 0, 0, 0]"] ;
483 -> 485 ;
486 [label="X[2] <= 0.5\ngini = 0.5\nsamples = 2\nvalue = [0, 1, 0, 0, 0, 1]"] ;
478 -> 486 ;
487 [label="gini = 0.0\nsamples = 1\nvalue = [0, 0, 0, 0, 0, 1]"] ;
486 -> 487 ;
488 [label="gini = 0.0\nsamples = 1\nvalue = [0, 1, 0, 0, 0, 0]"] ;
486 -> 488 ;
489 [label="X[4] <= 31.5\ngini = 0.72\nsamples = 5\nvalue = [1, 0, 1, 0, 1, 2]"] ;
477 -> 489 ;
490 [label="X[5] <= 4.5\ngini = 0.444\nsamples = 3\nvalue = [1, 0, 0, 0, 0, 2]"] ;
489 -> 490 ;
491 [label="gini = 0.0\nsamples = 2\nvalue = [0, 0, 0, 0, 0, 2]"] ;
490 -> 491 ;
492 [label="gini = 0.0\nsamples = 1\nvalue = [1, 0, 0, 0, 0, 0]"] ;
490 -> 492 ;
493 [label="X[4] <= 36.0\ngini = 0.5\nsamples = 2\nvalue = [0, 0, 1, 0, 1, 0]"] ;
489 -> 493 ;
494 [label="gini = 0.0\nsamples = 1\nvalue = [0, 0, 1, 0, 0, 0]"] ;
493 -> 494 ;
495 [label="gini = 0.0\nsamples = 1\nvalue = [0, 0, 0, 0, 1, 0]"] ;
493 -> 495 ;
496 [label="X[3] <= 9.5\ngini = 0.206\nsamples = 867\nvalue = [17, 35, 11, 14, 19, 771]"] ;
332 -> 496 ;
497 [label="X[6] <= 2.5\ngini = 0.22\nsamples = 765\nvalue = [17, 32, 9, 14, 19, 674]"] ;
496 -> 497 ;
498 [label="X[20] <= 0.5\ngini = 0.203\nsamples = 558\nvalue = [9, 27, 8, 6, 11, 497]"] ;
497 -> 498 ;
499 [label="X[3] <= 5.5\ngini = 0.216\nsamples = 514\nvalue = [9, 27, 7, 6, 11, 454]"] ;
498 -> 499 ;
500 [label="X[4] <= 7.0\ngini = 0.177\nsamples = 308\nvalue = [4, 12, 2, 4, 7, 279]"] ;
499 -> 500 ;
501 [label="X[17] <= 0.5\ngini = 0.56\nsamples = 5\nvalue = [0, 1, 0, 0, 1, 3]"] ;
500 -> 501 ;
502 [label="gini = 0.0\nsamples = 3\nvalue = [0, 0, 0, 0, 0, 3]"] ;
501 -> 502 ;
503 [label="X[3] <= 3.5\ngini = 0.5\nsamples = 2\nvalue = [0, 1, 0, 0, 1, 0]"] ;
501 -> 503 ;
504 [label="gini = 0.0\nsamples = 1\nvalue = [0, 0, 0, 0, 1, 0]"] ;
503 -> 504 ;
505 [label="gini = 0.0\nsamples = 1\nvalue = [0, 1, 0, 0, 0, 0]"] ;
503 -> 505 ;
506 [label="X[10] <= 0.5\ngini = 0.168\nsamples = 303\nvalue = [4, 11, 2, 4, 6, 276]"] ;
500 -> 506 ;
507 [label="X[5] <= 0.5\ngini = 0.146\nsamples = 261\nvalue = [4, 7, 1, 3, 5, 241]"] ;
506 -> 507 ;
508 [label="gini = 0.278\nsamples = 45\nvalue = [1, 1, 0, 1, 4, 38]"] ;
507 -> 508 ;
509 [label="gini = 0.116\nsamples = 216\nvalue = [3, 6, 1, 2, 1, 203]"] ;
507 -> 509 ;
510 [label="X[5] <= 3.5\ngini = 0.295\nsamples = 42\nvalue = [0, 4, 1, 1, 1, 35]"] ;
506 -> 510 ;
511 [label="gini = 0.184\nsamples = 30\nvalue = [0, 2, 1, 0, 0, 27]"] ;
510 -> 511 ;
512 [label="gini = 0.514\nsamples = 12\nvalue = [0, 2, 0, 1, 1, 8]"] ;
510 -> 512 ;
513 [label="X[13] <= 0.5\ngini = 0.271\nsamples = 206\nvalue = [5, 15, 5, 2, 4, 175]"] ;
499 -> 513 ;
514 [label="X[5] <= 1.5\ngini = 0.258\nsamples = 190\nvalue = [5, 12, 4, 2, 4, 163]"] ;
513 -> 514 ;
515 [label="X[4] <= 32.5\ngini = 0.064\nsamples = 30\nvalue = [0, 1, 0, 0, 0, 29]"] ;
514 -> 515 ;
516 [label="gini = 0.0\nsamples = 28\nvalue = [0, 0, 0, 0, 0, 28]"] ;
515 -> 516 ;
517 [label="gini = 0.5\nsamples = 2\nvalue = [0, 1, 0, 0, 0, 1]"] ;
515 -> 517 ;
518 [label="X[4] <= 31.5\ngini = 0.291\nsamples = 160\nvalue = [5, 11, 4, 2, 4, 134]"] ;
514 -> 518 ;
519 [label="gini = 0.326\nsamples = 130\nvalue = [4, 10, 4, 2, 4, 106]"] ;
518 -> 519 ;
520 [label="gini = 0.127\nsamples = 30\nvalue = [1, 1, 0, 0, 0, 28]"] ;
518 -> 520 ;
521 [label="X[4] <= 16.0\ngini = 0.398\nsamples = 16\nvalue = [0, 3, 1, 0, 0, 12]"] ;
513 -> 521 ;
522 [label="X[5] <= 2.5\ngini = 0.48\nsamples = 5\nvalue = [0, 3, 0, 0, 0, 2]"] ;
521 -> 522 ;
523 [label="gini = 0.0\nsamples = 2\nvalue = [0, 2, 0, 0, 0, 0]"] ;
522 -> 523 ;
524 [label="gini = 0.444\nsamples = 3\nvalue = [0, 1, 0, 0, 0, 2]"] ;
522 -> 524 ;
525 [label="X[5] <= 0.5\ngini = 0.165\nsamples = 11\nvalue = [0, 0, 1, 0, 0, 10]"] ;
521 -> 525 ;
526 [label="gini = 0.0\nsamples = 1\nvalue = [0, 0, 1, 0, 0, 0]"] ;
525 -> 526 ;
527 [label="gini = 0.0\nsamples = 10\nvalue = [0, 0, 0, 0, 0, 10]"] ;
525 -> 527 ;
528 [label="X[4] <= 39.0\ngini = 0.044\nsamples = 44\nvalue = [0, 0, 1, 0, 0, 43]"] ;
498 -> 528 ;
529 [label="gini = 0.0\nsamples = 40\nvalue = [0, 0, 0, 0, 0, 40]"] ;
528 -> 529 ;
530 [label="X[3] <= 4.5\ngini = 0.375\nsamples = 4\nvalue = [0, 0, 1, 0, 0, 3]"] ;
528 -> 530 ;
531 [label="X[4] <= 40.5\ngini = 0.5\nsamples = 2\nvalue = [0, 0, 1, 0, 0, 1]"] ;
530 -> 531 ;
532 [label="gini = 0.0\nsamples = 1\nvalue = [0, 0, 1, 0, 0, 0]"] ;
531 -> 532 ;
533 [label="gini = 0.0\nsamples = 1\nvalue = [0, 0, 0, 0, 0, 1]"] ;
531 -> 533 ;
534 [label="gini = 0.0\nsamples = 2\nvalue = [0, 0, 0, 0, 0, 2]"] ;
530 -> 534 ;
535 [label="X[11] <= 0.5\ngini = 0.264\nsamples = 207\nvalue = [8, 5, 1, 8, 8, 177]"] ;
497 -> 535 ;
536 [label="X[13] <= 0.5\ngini = 0.246\nsamples = 194\nvalue = [7, 5, 1, 5, 8, 168]"] ;
535 -> 536 ;
537 [label="X[8] <= 0.5\ngini = 0.213\nsamples = 174\nvalue = [6, 5, 0, 3, 6, 154]"] ;
536 -> 537 ;
538 [label="X[5] <= 1.5\ngini = 0.175\nsamples = 150\nvalue = [6, 3, 0, 1, 4, 136]"] ;
537 -> 538 ;
539 [label="X[4] <= 20.0\ngini = 0.349\nsamples = 25\nvalue = [1, 2, 0, 1, 1, 20]"] ;
538 -> 539 ;
540 [label="gini = 0.571\nsamples = 7\nvalue = [0, 2, 0, 1, 0, 4]"] ;
539 -> 540 ;
541 [label="gini = 0.204\nsamples = 18\nvalue = [1, 0, 0, 0, 1, 16]"] ;
539 -> 541 ;
542 [label="X[14] <= 0.5\ngini = 0.137\nsamples = 125\nvalue = [5, 1, 0, 0, 3, 116]"] ;
538 -> 542 ;
543 [label="gini = 0.105\nsamples = 110\nvalue = [3, 1, 0, 0, 2, 104]"] ;
542 -> 543 ;
544 [label="gini = 0.338\nsamples = 15\nvalue = [2, 0, 0, 0, 1, 12]"] ;
542 -> 544 ;
545 [label="X[6] <= 3.5\ngini = 0.417\nsamples = 24\nvalue = [0, 2, 0, 2, 2, 18]"] ;
537 -> 545 ;
546 [label="X[4] <= 37.5\ngini = 0.587\nsamples = 15\nvalue = [0, 2, 0, 2, 2, 9]"] ;
545 -> 546 ;
547 [label="gini = 0.66\nsamples = 10\nvalue = [0, 1, 0, 2, 2, 5]"] ;
546 -> 547 ;
548 [label="gini = 0.32\nsamples = 5\nvalue = [0, 1, 0, 0, 0, 4]"] ;
546 -> 548 ;
549 [label="gini = 0.0\nsamples = 9\nvalue = [0, 0, 0, 0, 0, 9]"] ;
545 -> 549 ;
550 [label="X[4] <= 36.0\ngini = 0.485\nsamples = 20\nvalue = [1, 0, 1, 2, 2, 14]"] ;
536 -> 550 ;
551 [label="X[3] <= 7.5\ngini = 0.377\nsamples = 18\nvalue = [1, 0, 0, 1, 2, 14]"] ;
550 -> 551 ;
552 [label="X[5] <= 6.5\ngini = 0.255\nsamples = 14\nvalue = [1, 0, 0, 0, 1, 12]"] ;
551 -> 552 ;
553 [label="gini = 0.153\nsamples = 12\nvalue = [1, 0, 0, 0, 0, 11]"] ;
552 -> 553 ;
554 [label="gini = 0.5\nsamples = 2\nvalue = [0, 0, 0, 0, 1, 1]"] ;
552 -> 554 ;
555 [label="X[3] <= 8.5\ngini = 0.625\nsamples = 4\nvalue = [0, 0, 0, 1, 1, 2]"] ;
551 -> 555 ;
556 [label="gini = 0.0\nsamples = 1\nvalue = [0, 0, 0, 1, 0, 0]"] ;
555 -> 556 ;
557 [label="gini = 0.444\nsamples = 3\nvalue = [0, 0, 0, 0, 1, 2]"] ;
555 -> 557 ;
558 [label="X[4] <= 46.0\ngini = 0.5\nsamples = 2\nvalue = [0, 0, 1, 1, 0, 0]"] ;
550 -> 558 ;
559 [label="gini = 0.0\nsamples = 1\nvalue = [0, 0, 0, 1, 0, 0]"] ;
558 -> 559 ;
560 [label="gini = 0.0\nsamples = 1\nvalue = [0, 0, 1, 0, 0, 0]"] ;
558 -> 560 ;
561 [label="X[0] <= 0.5\ngini = 0.462\nsamples = 13\nvalue = [1, 0, 0, 3, 0, 9]"] ;
535 -> 561 ;
562 [label="gini = 0.0\nsamples = 1\nvalue = [1, 0, 0, 0, 0, 0]"] ;
561 -> 562 ;
563 [label="X[3] <= 6.5\ngini = 0.375\nsamples = 12\nvalue = [0, 0, 0, 3, 0, 9]"] ;
561 -> 563 ;
564 [label="X[4] <= 30.0\ngini = 0.49\nsamples = 7\nvalue = [0, 0, 0, 3, 0, 4]"] ;
563 -> 564 ;
565 [label="X[3] <= 3.0\ngini = 0.48\nsamples = 5\nvalue = [0, 0, 0, 3, 0, 2]"] ;
564 -> 565 ;
566 [label="gini = 0.444\nsamples = 3\nvalue = [0, 0, 0, 1, 0, 2]"] ;
565 -> 566 ;
567 [label="gini = 0.0\nsamples = 2\nvalue = [0, 0, 0, 2, 0, 0]"] ;
565 -> 567 ;
568 [label="gini = 0.0\nsamples = 2\nvalue = [0, 0, 0, 0, 0, 2]"] ;
564 -> 568 ;
569 [label="gini = 0.0\nsamples = 5\nvalue = [0, 0, 0, 0, 0, 5]"] ;
563 -> 569 ;
570 [label="X[4] <= 32.5\ngini = 0.094\nsamples = 102\nvalue = [0, 3, 2, 0, 0, 97]"] ;
496 -> 570 ;
571 [label="X[6] <= 1.5\ngini = 0.072\nsamples = 80\nvalue = [0, 3, 0, 0, 0, 77]"] ;
570 -> 571 ;
572 [label="gini = 0.0\nsamples = 40\nvalue = [0, 0, 0, 0, 0, 40]"] ;
571 -> 572 ;
573 [label="X[9] <= 0.5\ngini = 0.139\nsamples = 40\nvalue = [0, 3, 0, 0, 0, 37]"] ;
571 -> 573 ;
574 [label="X[10] <= 0.5\ngini = 0.1\nsamples = 38\nvalue = [0, 2, 0, 0, 0, 36]"] ;
573 -> 574 ;
575 [label="X[5] <= 1.5\ngini = 0.054\nsamples = 36\nvalue = [0, 1, 0, 0, 0, 35]"] ;
574 -> 575 ;
576 [label="X[2] <= 0.5\ngini = 0.32\nsamples = 5\nvalue = [0, 1, 0, 0, 0, 4]"] ;
575 -> 576 ;
577 [label="gini = 0.5\nsamples = 2\nvalue = [0, 1, 0, 0, 0, 1]"] ;
576 -> 577 ;
578 [label="gini = 0.0\nsamples = 3\nvalue = [0, 0, 0, 0, 0, 3]"] ;
576 -> 578 ;
579 [label="gini = 0.0\nsamples = 31\nvalue = [0, 0, 0, 0, 0, 31]"] ;
575 -> 579 ;
580 [label="X[5] <= 3.5\ngini = 0.5\nsamples = 2\nvalue = [0, 1, 0, 0, 0, 1]"] ;
574 -> 580 ;
581 [label="gini = 0.0\nsamples = 1\nvalue = [0, 1, 0, 0, 0, 0]"] ;
580 -> 581 ;
582 [label="gini = 0.0\nsamples = 1\nvalue = [0, 0, 0, 0, 0, 1]"] ;
580 -> 582 ;
583 [label="X[4] <= 18.5\ngini = 0.5\nsamples = 2\nvalue = [0, 1, 0, 0, 0, 1]"] ;
573 -> 583 ;
584 [label="gini = 0.0\nsamples = 1\nvalue = [0, 1, 0, 0, 0, 0]"] ;
583 -> 584 ;
585 [label="gini = 0.0\nsamples = 1\nvalue = [0, 0, 0, 0, 0, 1]"] ;
583 -> 585 ;
586 [label="X[11] <= 0.5\ngini = 0.165\nsamples = 22\nvalue = [0, 0, 2, 0, 0, 20]"] ;
570 -> 586 ;
587 [label="X[14] <= 0.5\ngini = 0.1\nsamples = 19\nvalue = [0, 0, 1, 0, 0, 18]"] ;
586 -> 587 ;
588 [label="gini = 0.0\nsamples = 15\nvalue = [0, 0, 0, 0, 0, 15]"] ;
587 -> 588 ;
589 [label="X[4] <= 39.0\ngini = 0.375\nsamples = 4\nvalue = [0, 0, 1, 0, 0, 3]"] ;
587 -> 589 ;
590 [label="gini = 0.0\nsamples = 3\nvalue = [0, 0, 0, 0, 0, 3]"] ;
589 -> 590 ;
591 [label="gini = 0.0\nsamples = 1\nvalue = [0, 0, 1, 0, 0, 0]"] ;
589 -> 591 ;
592 [label="X[6] <= 3.0\ngini = 0.444\nsamples = 3\nvalue = [0, 0, 1, 0, 0, 2]"] ;
586 -> 592 ;
593 [label="gini = 0.0\nsamples = 2\nvalue = [0, 0, 0, 0, 0, 2]"] ;
592 -> 593 ;
594 [label="gini = 0.0\nsamples = 1\nvalue = [0, 0, 1, 0, 0, 0]"] ;
592 -> 594 ;
595 [label="X[2] <= 0.5\ngini = 0.307\nsamples = 145\nvalue = [10, 5, 3, 2, 5, 120]"] ;
331 -> 595 ;
596 [label="X[6] <= 3.5\ngini = 0.5\nsamples = 16\nvalue = [2, 1, 1, 1, 0, 11]"] ;
595 -> 596 ;
597 [label="X[6] <= 2.5\ngini = 0.436\nsamples = 15\nvalue = [2, 1, 0, 1, 0, 11]"] ;
596 -> 597 ;
598 [label="X[4] <= 34.5\ngini = 0.58\nsamples = 10\nvalue = [2, 1, 0, 1, 0, 6]"] ;
597 -> 598 ;
599 [label="X[5] <= 4.5\ngini = 0.494\nsamples = 9\nvalue = [2, 1, 0, 0, 0, 6]"] ;
598 -> 599 ;
600 [label="X[4] <= 28.0\ngini = 0.406\nsamples = 8\nvalue = [1, 1, 0, 0, 0, 6]"] ;
599 -> 600 ;
601 [label="gini = 0.0\nsamples = 4\nvalue = [0, 0, 0, 0, 0, 4]"] ;
600 -> 601 ;
602 [label="X[1] <= 0.5\ngini = 0.625\nsamples = 4\nvalue = [1, 1, 0, 0, 0, 2]"] ;
600 -> 602 ;
603 [label="gini = 0.0\nsamples = 1\nvalue = [1, 0, 0, 0, 0, 0]"] ;
602 -> 603 ;
604 [label="X[4] <= 29.5\ngini = 0.444\nsamples = 3\nvalue = [0, 1, 0, 0, 0, 2]"] ;
602 -> 604 ;
605 [label="gini = 0.0\nsamples = 1\nvalue = [0, 1, 0, 0, 0, 0]"] ;
604 -> 605 ;
606 [label="gini = 0.0\nsamples = 2\nvalue = [0, 0, 0, 0, 0, 2]"] ;
604 -> 606 ;
607 [label="gini = 0.0\nsamples = 1\nvalue = [1, 0, 0, 0, 0, 0]"] ;
599 -> 607 ;
608 [label="gini = 0.0\nsamples = 1\nvalue = [0, 0, 0, 1, 0, 0]"] ;
598 -> 608 ;
609 [label="gini = 0.0\nsamples = 5\nvalue = [0, 0, 0, 0, 0, 5]"] ;
597 -> 609 ;
610 [label="gini = 0.0\nsamples = 1\nvalue = [0, 0, 1, 0, 0, 0]"] ;
596 -> 610 ;
611 [label="X[4] <= 9.5\ngini = 0.279\nsamples = 129\nvalue = [8, 4, 2, 1, 5, 109]"] ;
595 -> 611 ;
612 [label="X[1] <= 0.5\ngini = 0.5\nsamples = 2\nvalue = [1, 0, 0, 0, 0, 1]"] ;
611 -> 612 ;
613 [label="gini = 0.0\nsamples = 1\nvalue = [0, 0, 0, 0, 0, 1]"] ;
612 -> 613 ;
614 [label="gini = 0.0\nsamples = 1\nvalue = [1, 0, 0, 0, 0, 0]"] ;
612 -> 614 ;
615 [label="X[5] <= 4.5\ngini = 0.271\nsamples = 127\nvalue = [7, 4, 2, 1, 5, 108]"] ;
611 -> 615 ;
616 [label="X[5] <= 3.5\ngini = 0.337\nsamples = 94\nvalue = [6, 4, 2, 1, 5, 76]"] ;
615 -> 616 ;
617 [label="X[4] <= 10.5\ngini = 0.312\nsamples = 68\nvalue = [5, 0, 2, 1, 4, 56]"] ;
616 -> 617 ;
618 [label="X[3] <= 4.5\ngini = 0.451\nsamples = 18\nvalue = [2, 0, 2, 1, 0, 13]"] ;
617 -> 618 ;
619 [label="X[6] <= 1.5\ngini = 0.656\nsamples = 8\nvalue = [1, 0, 2, 1, 0, 4]"] ;
618 -> 619 ;
620 [label="X[5] <= 1.0\ngini = 0.32\nsamples = 5\nvalue = [1, 0, 0, 0, 0, 4]"] ;
619 -> 620 ;
621 [label="gini = 0.0\nsamples = 1\nvalue = [1, 0, 0, 0, 0, 0]"] ;
620 -> 621 ;
622 [label="gini = 0.0\nsamples = 4\nvalue = [0, 0, 0, 0, 0, 4]"] ;
620 -> 622 ;
623 [label="X[3] <= 3.5\ngini = 0.444\nsamples = 3\nvalue = [0, 0, 2, 1, 0, 0]"] ;
619 -> 623 ;
624 [label="gini = 0.5\nsamples = 2\nvalue = [0, 0, 1, 1, 0, 0]"] ;
623 -> 624 ;
625 [label="gini = 0.0\nsamples = 1\nvalue = [0, 0, 1, 0, 0, 0]"] ;
623 -> 625 ;
626 [label="X[1] <= 0.5\ngini = 0.18\nsamples = 10\nvalue = [1, 0, 0, 0, 0, 9]"] ;
618 -> 626 ;
627 [label="gini = 0.0\nsamples = 8\nvalue = [0, 0, 0, 0, 0, 8]"] ;
626 -> 627 ;
628 [label="X[6] <= 1.5\ngini = 0.5\nsamples = 2\nvalue = [1, 0, 0, 0, 0, 1]"] ;
626 -> 628 ;
629 [label="gini = 0.0\nsamples = 1\nvalue = [0, 0, 0, 0, 0, 1]"] ;
628 -> 629 ;
630 [label="gini = 0.0\nsamples = 1\nvalue = [1, 0, 0, 0, 0, 0]"] ;
628 -> 630 ;
631 [label="X[0] <= 0.5\ngini = 0.25\nsamples = 50\nvalue = [3, 0, 0, 0, 4, 43]"] ;
617 -> 631 ;
632 [label="X[4] <= 30.5\ngini = 0.365\nsamples = 32\nvalue = [3, 0, 0, 0, 4, 25]"] ;
631 -> 632 ;
633 [label="X[3] <= 8.5\ngini = 0.185\nsamples = 20\nvalue = [1, 0, 0, 0, 1, 18]"] ;
632 -> 633 ;
634 [label="gini = 0.117\nsamples = 16\nvalue = [1, 0, 0, 0, 0, 15]"] ;
633 -> 634 ;
635 [label="gini = 0.375\nsamples = 4\nvalue = [0, 0, 0, 0, 1, 3]"] ;
633 -> 635 ;
636 [label="X[5] <= 0.5\ngini = 0.569\nsamples = 12\nvalue = [2, 0, 0, 0, 3, 7]"] ;
632 -> 636 ;
637 [label="gini = 0.444\nsamples = 3\nvalue = [0, 0, 0, 0, 2, 1]"] ;
636 -> 637 ;
638 [label="gini = 0.494\nsamples = 9\nvalue = [2, 0, 0, 0, 1, 6]"] ;
636 -> 638 ;
639 [label="gini = 0.0\nsamples = 18\nvalue = [0, 0, 0, 0, 0, 18]"] ;
631 -> 639 ;
640 [label="X[3] <= 4.5\ngini = 0.382\nsamples = 26\nvalue = [1, 4, 0, 0, 1, 20]"] ;
616 -> 640 ;
641 [label="gini = 0.0\nsamples = 12\nvalue = [0, 0, 0, 0, 0, 12]"] ;
640 -> 641 ;
642 [label="X[3] <= 6.5\ngini = 0.582\nsamples = 14\nvalue = [1, 4, 0, 0, 1, 8]"] ;
640 -> 642 ;
643 [label="X[4] <= 12.5\ngini = 0.571\nsamples = 7\nvalue = [1, 4, 0, 0, 0, 2]"] ;
642 -> 643 ;
644 [label="gini = 0.0\nsamples = 1\nvalue = [1, 0, 0, 0, 0, 0]"] ;
643 -> 644 ;
645 [label="X[3] <= 5.5\ngini = 0.444\nsamples = 6\nvalue = [0, 4, 0, 0, 0, 2]"] ;
643 -> 645 ;
646 [label="gini = 0.0\nsamples = 2\nvalue = [0, 2, 0, 0, 0, 0]"] ;
645 -> 646 ;
647 [label="gini = 0.5\nsamples = 4\nvalue = [0, 2, 0, 0, 0, 2]"] ;
645 -> 647 ;
648 [label="X[3] <= 9.5\ngini = 0.245\nsamples = 7\nvalue = [0, 0, 0, 0, 1, 6]"] ;
642 -> 648 ;
649 [label="gini = 0.0\nsamples = 5\nvalue = [0, 0, 0, 0, 0, 5]"] ;
648 -> 649 ;
650 [label="X[6] <= 2.5\ngini = 0.5\nsamples = 2\nvalue = [0, 0, 0, 0, 1, 1]"] ;
648 -> 650 ;
651 [label="gini = 0.0\nsamples = 1\nvalue = [0, 0, 0, 0, 1, 0]"] ;
650 -> 651 ;
652 [label="gini = 0.0\nsamples = 1\nvalue = [0, 0, 0, 0, 0, 1]"] ;
650 -> 652 ;
653 [label="X[3] <= 2.5\ngini = 0.059\nsamples = 33\nvalue = [1, 0, 0, 0, 0, 32]"] ;
615 -> 653 ;
654 [label="X[5] <= 5.5\ngini = 0.278\nsamples = 6\nvalue = [1, 0, 0, 0, 0, 5]"] ;
653 -> 654 ;
655 [label="X[0] <= 0.5\ngini = 0.444\nsamples = 3\nvalue = [1, 0, 0, 0, 0, 2]"] ;
654 -> 655 ;
656 [label="gini = 0.0\nsamples = 1\nvalue = [0, 0, 0, 0, 0, 1]"] ;
655 -> 656 ;
657 [label="X[6] <= 3.5\ngini = 0.5\nsamples = 2\nvalue = [1, 0, 0, 0, 0, 1]"] ;
655 -> 657 ;
658 [label="gini = 0.0\nsamples = 1\nvalue = [1, 0, 0, 0, 0, 0]"] ;
657 -> 658 ;
659 [label="gini = 0.0\nsamples = 1\nvalue = [0, 0, 0, 0, 0, 1]"] ;
657 -> 659 ;
660 [label="gini = 0.0\nsamples = 3\nvalue = [0, 0, 0, 0, 0, 3]"] ;
654 -> 660 ;
661 [label="gini = 0.0\nsamples = 27\nvalue = [0, 0, 0, 0, 0, 27]"] ;
653 -> 661 ;
662 [label="X[13] <= 0.5\ngini = 0.33\nsamples = 160\nvalue = [4, 12, 0, 8, 6, 130]"] ;
330 -> 662 ;
663 [label="X[10] <= 0.5\ngini = 0.3\nsamples = 149\nvalue = [4, 9, 0, 6, 6, 124]"] ;
662 -> 663 ;
664 [label="X[3] <= 6.5\ngini = 0.258\nsamples = 134\nvalue = [4, 7, 0, 4, 4, 115]"] ;
663 -> 664 ;
665 [label="X[2] <= 0.5\ngini = 0.189\nsamples = 89\nvalue = [1, 3, 0, 3, 2, 80]"] ;
664 -> 665 ;
666 [label="X[4] <= 61.0\ngini = 0.485\nsamples = 13\nvalue = [0, 1, 0, 2, 1, 9]"] ;
665 -> 666 ;
667 [label="X[8] <= 0.5\ngini = 0.75\nsamples = 4\nvalue = [0, 1, 0, 1, 1, 1]"] ;
666 -> 667 ;
668 [label="X[5] <= 2.0\ngini = 0.667\nsamples = 3\nvalue = [0, 0, 0, 1, 1, 1]"] ;
667 -> 668 ;
669 [label="gini = 0.0\nsamples = 1\nvalue = [0, 0, 0, 0, 1, 0]"] ;
668 -> 669 ;
670 [label="X[5] <= 5.5\ngini = 0.5\nsamples = 2\nvalue = [0, 0, 0, 1, 0, 1]"] ;
668 -> 670 ;
671 [label="gini = 0.0\nsamples = 1\nvalue = [0, 0, 0, 1, 0, 0]"] ;
670 -> 671 ;
672 [label="gini = 0.0\nsamples = 1\nvalue = [0, 0, 0, 0, 0, 1]"] ;
670 -> 672 ;
673 [label="gini = 0.0\nsamples = 1\nvalue = [0, 1, 0, 0, 0, 0]"] ;
667 -> 673 ;
674 [label="X[11] <= 0.5\ngini = 0.198\nsamples = 9\nvalue = [0, 0, 0, 1, 0, 8]"] ;
666 -> 674 ;
675 [label="gini = 0.0\nsamples = 7\nvalue = [0, 0, 0, 0, 0, 7]"] ;
674 -> 675 ;
676 [label="X[0] <= 0.5\ngini = 0.5\nsamples = 2\nvalue = [0, 0, 0, 1, 0, 1]"] ;
674 -> 676 ;
677 [label="gini = 0.0\nsamples = 1\nvalue = [0, 0, 0, 0, 0, 1]"] ;
676 -> 677 ;
678 [label="gini = 0.0\nsamples = 1\nvalue = [0, 0, 0, 1, 0, 0]"] ;
676 -> 678 ;
679 [label="X[5] <= 3.5\ngini = 0.126\nsamples = 76\nvalue = [1, 2, 0, 1, 1, 71]"] ;
665 -> 679 ;
680 [label="X[5] <= 2.5\ngini = 0.254\nsamples = 21\nvalue = [1, 2, 0, 0, 0, 18]"] ;
679 -> 680 ;
681 [label="X[20] <= 0.5\ngini = 0.111\nsamples = 17\nvalue = [0, 1, 0, 0, 0, 16]"] ;
680 -> 681 ;
682 [label="gini = 0.0\nsamples = 15\nvalue = [0, 0, 0, 0, 0, 15]"] ;
681 -> 682 ;
683 [label="X[4] <= 76.0\ngini = 0.5\nsamples = 2\nvalue = [0, 1, 0, 0, 0, 1]"] ;
681 -> 683 ;
684 [label="gini = 0.0\nsamples = 1\nvalue = [0, 1, 0, 0, 0, 0]"] ;
683 -> 684 ;
685 [label="gini = 0.0\nsamples = 1\nvalue = [0, 0, 0, 0, 0, 1]"] ;
683 -> 685 ;
686 [label="X[6] <= 2.0\ngini = 0.625\nsamples = 4\nvalue = [1, 1, 0, 0, 0, 2]"] ;
680 -> 686 ;
687 [label="X[3] <= 1.0\ngini = 0.444\nsamples = 3\nvalue = [1, 0, 0, 0, 0, 2]"] ;
686 -> 687 ;
688 [label="gini = 0.0\nsamples = 1\nvalue = [1, 0, 0, 0, 0, 0]"] ;
687 -> 688 ;
689 [label="gini = 0.0\nsamples = 2\nvalue = [0, 0, 0, 0, 0, 2]"] ;
687 -> 689 ;
690 [label="gini = 0.0\nsamples = 1\nvalue = [0, 1, 0, 0, 0, 0]"] ;
686 -> 690 ;
691 [label="X[12] <= 0.5\ngini = 0.071\nsamples = 55\nvalue = [0, 0, 0, 1, 1, 53]"] ;
679 -> 691 ;
692 [label="X[11] <= 0.5\ngini = 0.038\nsamples = 51\nvalue = [0, 0, 0, 0, 1, 50]"] ;
691 -> 692 ;
693 [label="gini = 0.0\nsamples = 44\nvalue = [0, 0, 0, 0, 0, 44]"] ;
692 -> 693 ;
694 [label="X[4] <= 65.0\ngini = 0.245\nsamples = 7\nvalue = [0, 0, 0, 0, 1, 6]"] ;
692 -> 694 ;
695 [label="gini = 0.0\nsamples = 4\nvalue = [0, 0, 0, 0, 0, 4]"] ;
694 -> 695 ;
696 [label="X[4] <= 84.0\ngini = 0.444\nsamples = 3\nvalue = [0, 0, 0, 0, 1, 2]"] ;
694 -> 696 ;
697 [label="gini = 0.0\nsamples = 1\nvalue = [0, 0, 0, 0, 1, 0]"] ;
696 -> 697 ;
698 [label="gini = 0.0\nsamples = 2\nvalue = [0, 0, 0, 0, 0, 2]"] ;
696 -> 698 ;
699 [label="X[0] <= 0.5\ngini = 0.375\nsamples = 4\nvalue = [0, 0, 0, 1, 0, 3]"] ;
691 -> 699 ;
700 [label="gini = 0.0\nsamples = 3\nvalue = [0, 0, 0, 0, 0, 3]"] ;
699 -> 700 ;
701 [label="gini = 0.0\nsamples = 1\nvalue = [0, 0, 0, 1, 0, 0]"] ;
699 -> 701 ;
702 [label="X[19] <= 0.5\ngini = 0.38\nsamples = 45\nvalue = [3, 4, 0, 1, 2, 35]"] ;
664 -> 702 ;
703 [label="X[6] <= 2.5\ngini = 0.317\nsamples = 39\nvalue = [3, 2, 0, 1, 1, 32]"] ;
702 -> 703 ;
704 [label="X[4] <= 56.5\ngini = 0.5\nsamples = 16\nvalue = [2, 1, 0, 1, 1, 11]"] ;
703 -> 704 ;
705 [label="gini = 0.0\nsamples = 1\nvalue = [0, 1, 0, 0, 0, 0]"] ;
704 -> 705 ;
706 [label="X[16] <= 0.5\ngini = 0.436\nsamples = 15\nvalue = [2, 0, 0, 1, 1, 11]"] ;
704 -> 706 ;
707 [label="X[18] <= 0.5\ngini = 0.367\nsamples = 14\nvalue = [1, 0, 0, 1, 1, 11]"] ;
706 -> 707 ;
708 [label="X[4] <= 68.5\ngini = 0.292\nsamples = 12\nvalue = [0, 0, 0, 1, 1, 10]"] ;
707 -> 708 ;
709 [label="gini = 0.5\nsamples = 6\nvalue = [0, 0, 0, 1, 1, 4]"] ;
708 -> 709 ;
710 [label="gini = 0.0\nsamples = 6\nvalue = [0, 0, 0, 0, 0, 6]"] ;
708 -> 710 ;
711 [label="X[5] <= 4.5\ngini = 0.5\nsamples = 2\nvalue = [1, 0, 0, 0, 0, 1]"] ;
707 -> 711 ;
712 [label="gini = 0.0\nsamples = 1\nvalue = [1, 0, 0, 0, 0, 0]"] ;
711 -> 712 ;
713 [label="gini = 0.0\nsamples = 1\nvalue = [0, 0, 0, 0, 0, 1]"] ;
711 -> 713 ;
714 [label="gini = 0.0\nsamples = 1\nvalue = [1, 0, 0, 0, 0, 0]"] ;
706 -> 714 ;
715 [label="X[8] <= 0.5\ngini = 0.163\nsamples = 23\nvalue = [1, 1, 0, 0, 0, 21]"] ;
703 -> 715 ;
716 [label="X[3] <= 9.5\ngini = 0.091\nsamples = 21\nvalue = [0, 1, 0, 0, 0, 20]"] ;
715 -> 716 ;
717 [label="gini = 0.0\nsamples = 18\nvalue = [0, 0, 0, 0, 0, 18]"] ;
716 -> 717 ;
718 [label="X[1] <= 0.5\ngini = 0.444\nsamples = 3\nvalue = [0, 1, 0, 0, 0, 2]"] ;
716 -> 718 ;
719 [label="gini = 0.0\nsamples = 1\nvalue = [0, 1, 0, 0, 0, 0]"] ;
718 -> 719 ;
720 [label="gini = 0.0\nsamples = 2\nvalue = [0, 0, 0, 0, 0, 2]"] ;
718 -> 720 ;
721 [label="X[1] <= 0.5\ngini = 0.5\nsamples = 2\nvalue = [1, 0, 0, 0, 0, 1]"] ;
715 -> 721 ;
722 [label="gini = 0.0\nsamples = 1\nvalue = [1, 0, 0, 0, 0, 0]"] ;
721 -> 722 ;
723 [label="gini = 0.0\nsamples = 1\nvalue = [0, 0, 0, 0, 0, 1]"] ;
721 -> 723 ;
724 [label="X[5] <= 6.5\ngini = 0.611\nsamples = 6\nvalue = [0, 2, 0, 0, 1, 3]"] ;
702 -> 724 ;
725 [label="X[4] <= 59.0\ngini = 0.48\nsamples = 5\nvalue = [0, 2, 0, 0, 0, 3]"] ;
724 -> 725 ;
726 [label="gini = 0.0\nsamples = 1\nvalue = [0, 1, 0, 0, 0, 0]"] ;
725 -> 726 ;
727 [label="X[6] <= 2.0\ngini = 0.375\nsamples = 4\nvalue = [0, 1, 0, 0, 0, 3]"] ;
725 -> 727 ;
728 [label="gini = 0.0\nsamples = 1\nvalue = [0, 1, 0, 0, 0, 0]"] ;
727 -> 728 ;
729 [label="gini = 0.0\nsamples = 3\nvalue = [0, 0, 0, 0, 0, 3]"] ;
727 -> 729 ;
730 [label="gini = 0.0\nsamples = 1\nvalue = [0, 0, 0, 0, 1, 0]"] ;
724 -> 730 ;
731 [label="X[6] <= 3.5\ngini = 0.587\nsamples = 15\nvalue = [0, 2, 0, 2, 2, 9]"] ;
663 -> 731 ;
732 [label="X[6] <= 2.5\ngini = 0.541\nsamples = 14\nvalue = [0, 2, 0, 1, 2, 9]"] ;
731 -> 732 ;
733 [label="X[0] <= 0.5\ngini = 0.691\nsamples = 9\nvalue = [0, 2, 0, 1, 2, 4]"] ;
732 -> 733 ;
734 [label="X[5] <= 6.5\ngini = 0.375\nsamples = 4\nvalue = [0, 0, 0, 0, 1, 3]"] ;
733 -> 734 ;
735 [label="gini = 0.0\nsamples = 3\nvalue = [0, 0, 0, 0, 0, 3]"] ;
734 -> 735 ;
736 [label="gini = 0.0\nsamples = 1\nvalue = [0, 0, 0, 0, 1, 0]"] ;
734 -> 736 ;
737 [label="X[4] <= 65.5\ngini = 0.72\nsamples = 5\nvalue = [0, 2, 0, 1, 1, 1]"] ;
733 -> 737 ;
738 [label="X[3] <= 4.5\ngini = 0.5\nsamples = 2\nvalue = [0, 0, 0, 1, 1, 0]"] ;
737 -> 738 ;
739 [label="gini = 0.0\nsamples = 1\nvalue = [0, 0, 0, 1, 0, 0]"] ;
738 -> 739 ;
740 [label="gini = 0.0\nsamples = 1\nvalue = [0, 0, 0, 0, 1, 0]"] ;
738 -> 740 ;
741 [label="X[3] <= 9.0\ngini = 0.444\nsamples = 3\nvalue = [0, 2, 0, 0, 0, 1]"] ;
737 -> 741 ;
742 [label="gini = 0.0\nsamples = 2\nvalue = [0, 2, 0, 0, 0, 0]"] ;
741 -> 742 ;
743 [label="gini = 0.0\nsamples = 1\nvalue = [0, 0, 0, 0, 0, 1]"] ;
741 -> 743 ;
744 [label="gini = 0.0\nsamples = 5\nvalue = [0, 0, 0, 0, 0, 5]"] ;
732 -> 744 ;
745 [label="gini = 0.0\nsamples = 1\nvalue = [0, 0, 0, 1, 0, 0]"] ;
731 -> 745 ;
746 [label="X[3] <= 1.0\ngini = 0.595\nsamples = 11\nvalue = [0, 3, 0, 2, 0, 6]"] ;
662 -> 746 ;
747 [label="X[5] <= 6.5\ngini = 0.444\nsamples = 3\nvalue = [0, 1, 0, 2, 0, 0]"] ;
746 -> 747 ;
748 [label="gini = 0.0\nsamples = 2\nvalue = [0, 0, 0, 2, 0, 0]"] ;
747 -> 748 ;
749 [label="gini = 0.0\nsamples = 1\nvalue = [0, 1, 0, 0, 0, 0]"] ;
747 -> 749 ;
750 [label="X[4] <= 136.0\ngini = 0.375\nsamples = 8\nvalue = [0, 2, 0, 0, 0, 6]"] ;
746 -> 750 ;
751 [label="X[5] <= 2.0\ngini = 0.245\nsamples = 7\nvalue = [0, 1, 0, 0, 0, 6]"] ;
750 -> 751 ;
752 [label="X[4] <= 117.5\ngini = 0.5\nsamples = 2\nvalue = [0, 1, 0, 0, 0, 1]"] ;
751 -> 752 ;
753 [label="gini = 0.0\nsamples = 1\nvalue = [0, 1, 0, 0, 0, 0]"] ;
752 -> 753 ;
754 [label="gini = 0.0\nsamples = 1\nvalue = [0, 0, 0, 0, 0, 1]"] ;
752 -> 754 ;
755 [label="gini = 0.0\nsamples = 5\nvalue = [0, 0, 0, 0, 0, 5]"] ;
751 -> 755 ;
756 [label="gini = 0.0\nsamples = 1\nvalue = [0, 1, 0, 0, 0, 0]"] ;
750 -> 756 ;
757 [label="X[4] <= 160.5\ngini = 0.37\nsamples = 186\nvalue = [15, 14, 5, 4, 2, 146]"] ;
329 -> 757 ;
758 [label="X[4] <= 9.5\ngini = 0.358\nsamples = 184\nvalue = [14, 13, 5, 4, 2, 146]"] ;
757 -> 758 ;
759 [label="gini = 0.0\nsamples = 1\nvalue = [1, 0, 0, 0, 0, 0]"] ;
758 -> 759 ;
760 [label="X[6] <= 1.5\ngini = 0.352\nsamples = 183\nvalue = [13, 13, 5, 4, 2, 146]"] ;
758 -> 760 ;
761 [label="X[4] <= 30.0\ngini = 0.593\nsamples = 9\nvalue = [2, 2, 0, 0, 0, 5]"] ;
760 -> 761 ;
762 [label="X[5] <= 9.0\ngini = 0.444\nsamples = 3\nvalue = [2, 1, 0, 0, 0, 0]"] ;
761 -> 762 ;
763 [label="gini = 0.0\nsamples = 1\nvalue = [0, 1, 0, 0, 0, 0]"] ;
762 -> 763 ;
764 [label="gini = 0.0\nsamples = 2\nvalue = [2, 0, 0, 0, 0, 0]"] ;
762 -> 764 ;
765 [label="X[18] <= 0.5\ngini = 0.278\nsamples = 6\nvalue = [0, 1, 0, 0, 0, 5]"] ;
761 -> 765 ;
766 [label="gini = 0.0\nsamples = 5\nvalue = [0, 0, 0, 0, 0, 5]"] ;
765 -> 766 ;
767 [label="gini = 0.0\nsamples = 1\nvalue = [0, 1, 0, 0, 0, 0]"] ;
765 -> 767 ;
768 [label="X[16] <= 0.5\ngini = 0.334\nsamples = 174\nvalue = [11, 11, 5, 4, 2, 141]"] ;
760 -> 768 ;
769 [label="X[2] <= 0.5\ngini = 0.31\nsamples = 160\nvalue = [9, 11, 3, 4, 1, 132]"] ;
768 -> 769 ;
770 [label="X[6] <= 3.5\ngini = 0.482\nsamples = 19\nvalue = [3, 3, 0, 0, 0, 13]"] ;
769 -> 770 ;
771 [label="X[13] <= 0.5\ngini = 0.642\nsamples = 9\nvalue = [3, 2, 0, 0, 0, 4]"] ;
770 -> 771 ;
772 [label="X[18] <= 0.5\ngini = 0.594\nsamples = 8\nvalue = [3, 1, 0, 0, 0, 4]"] ;
771 -> 772 ;
773 [label="X[12] <= 0.5\ngini = 0.571\nsamples = 7\nvalue = [2, 1, 0, 0, 0, 4]"] ;
772 -> 773 ;
774 [label="X[10] <= 0.5\ngini = 0.5\nsamples = 6\nvalue = [1, 1, 0, 0, 0, 4]"] ;
773 -> 774 ;
775 [label="gini = 0.32\nsamples = 5\nvalue = [0, 1, 0, 0, 0, 4]"] ;
774 -> 775 ;
776 [label="gini = 0.0\nsamples = 1\nvalue = [1, 0, 0, 0, 0, 0]"] ;
774 -> 776 ;
777 [label="gini = 0.0\nsamples = 1\nvalue = [1, 0, 0, 0, 0, 0]"] ;
773 -> 777 ;
778 [label="gini = 0.0\nsamples = 1\nvalue = [1, 0, 0, 0, 0, 0]"] ;
772 -> 778 ;
779 [label="gini = 0.0\nsamples = 1\nvalue = [0, 1, 0, 0, 0, 0]"] ;
771 -> 779 ;
780 [label="X[4] <= 14.5\ngini = 0.18\nsamples = 10\nvalue = [0, 1, 0, 0, 0, 9]"] ;
770 -> 780 ;
781 [label="gini = 0.0\nsamples = 1\nvalue = [0, 1, 0, 0, 0, 0]"] ;
780 -> 781 ;
782 [label="gini = 0.0\nsamples = 9\nvalue = [0, 0, 0, 0, 0, 9]"] ;
780 -> 782 ;
783 [label="X[4] <= 53.5\ngini = 0.281\nsamples = 141\nvalue = [6, 8, 3, 4, 1, 119]"] ;
769 -> 783 ;
784 [label="X[4] <= 46.5\ngini = 0.359\nsamples = 68\nvalue = [5, 4, 2, 2, 1, 54]"] ;
783 -> 784 ;
785 [label="X[17] <= 0.5\ngini = 0.275\nsamples = 59\nvalue = [4, 1, 2, 2, 0, 50]"] ;
784 -> 785 ;
786 [label="X[3] <= 5.5\ngini = 0.254\nsamples = 57\nvalue = [4, 1, 1, 2, 0, 49]"] ;
785 -> 786 ;
787 [label="X[15] <= 0.5\ngini = 0.375\nsamples = 32\nvalue = [3, 1, 1, 2, 0, 25]"] ;
786 -> 787 ;
788 [label="gini = 0.339\nsamples = 31\nvalue = [2, 1, 1, 2, 0, 25]"] ;
787 -> 788 ;
789 [label="gini = 0.0\nsamples = 1\nvalue = [1, 0, 0, 0, 0, 0]"] ;
787 -> 789 ;
790 [label="X[3] <= 9.5\ngini = 0.077\nsamples = 25\nvalue = [1, 0, 0, 0, 0, 24]"] ;
786 -> 790 ;
791 [label="gini = 0.0\nsamples = 22\nvalue = [0, 0, 0, 0, 0, 22]"] ;
790 -> 791 ;
792 [label="gini = 0.444\nsamples = 3\nvalue = [1, 0, 0, 0, 0, 2]"] ;
790 -> 792 ;
793 [label="X[1] <= 0.5\ngini = 0.5\nsamples = 2\nvalue = [0, 0, 1, 0, 0, 1]"] ;
785 -> 793 ;
794 [label="gini = 0.0\nsamples = 1\nvalue = [0, 0, 1, 0, 0, 0]"] ;
793 -> 794 ;
795 [label="gini = 0.0\nsamples = 1\nvalue = [0, 0, 0, 0, 0, 1]"] ;
793 -> 795 ;
796 [label="X[19] <= 0.5\ngini = 0.667\nsamples = 9\nvalue = [1, 3, 0, 0, 1, 4]"] ;
784 -> 796 ;
797 [label="X[4] <= 49.5\ngini = 0.594\nsamples = 8\nvalue = [0, 3, 0, 0, 1, 4]"] ;
796 -> 797 ;
798 [label="X[5] <= 8.5\ngini = 0.611\nsamples = 6\nvalue = [0, 3, 0, 0, 1, 2]"] ;
797 -> 798 ;
799 [label="gini = 0.375\nsamples = 4\nvalue = [0, 3, 0, 0, 1, 0]"] ;
798 -> 799 ;
800 [label="gini = 0.0\nsamples = 2\nvalue = [0, 0, 0, 0, 0, 2]"] ;
798 -> 800 ;
801 [label="gini = 0.0\nsamples = 2\nvalue = [0, 0, 0, 0, 0, 2]"] ;
797 -> 801 ;
802 [label="gini = 0.0\nsamples = 1\nvalue = [1, 0, 0, 0, 0, 0]"] ;
796 -> 802 ;
803 [label="X[10] <= 0.5\ngini = 0.203\nsamples = 73\nvalue = [1, 4, 1, 2, 0, 65]"] ;
783 -> 803 ;
804 [label="X[20] <= 0.5\ngini = 0.186\nsamples = 70\nvalue = [1, 4, 1, 1, 0, 63]"] ;
803 -> 804 ;
805 [label="X[4] <= 103.0\ngini = 0.152\nsamples = 62\nvalue = [1, 3, 0, 1, 0, 57]"] ;
804 -> 805 ;
806 [label="X[13] <= 0.5\ngini = 0.13\nsamples = 58\nvalue = [0, 3, 0, 1, 0, 54]"] ;
805 -> 806 ;
807 [label="gini = 0.078\nsamples = 49\nvalue = [0, 2, 0, 0, 0, 47]"] ;
806 -> 807 ;
808 [label="gini = 0.37\nsamples = 9\nvalue = [0, 1, 0, 1, 0, 7]"] ;
806 -> 808 ;
809 [label="X[4] <= 108.0\ngini = 0.375\nsamples = 4\nvalue = [1, 0, 0, 0, 0, 3]"] ;
805 -> 809 ;
810 [label="gini = 0.0\nsamples = 1\nvalue = [1, 0, 0, 0, 0, 0]"] ;
809 -> 810 ;
811 [label="gini = 0.0\nsamples = 3\nvalue = [0, 0, 0, 0, 0, 3]"] ;
809 -> 811 ;
812 [label="X[5] <= 10.5\ngini = 0.406\nsamples = 8\nvalue = [0, 1, 1, 0, 0, 6]"] ;
804 -> 812 ;
813 [label="gini = 0.0\nsamples = 4\nvalue = [0, 0, 0, 0, 0, 4]"] ;
812 -> 813 ;
814 [label="X[4] <= 63.5\ngini = 0.625\nsamples = 4\nvalue = [0, 1, 1, 0, 0, 2]"] ;
812 -> 814 ;
815 [label="gini = 0.0\nsamples = 1\nvalue = [0, 0, 1, 0, 0, 0]"] ;
814 -> 815 ;
816 [label="gini = 0.444\nsamples = 3\nvalue = [0, 1, 0, 0, 0, 2]"] ;
814 -> 816 ;
817 [label="X[3] <= 4.0\ngini = 0.444\nsamples = 3\nvalue = [0, 0, 0, 1, 0, 2]"] ;
803 -> 817 ;
818 [label="gini = 0.0\nsamples = 1\nvalue = [0, 0, 0, 1, 0, 0]"] ;
817 -> 818 ;
819 [label="gini = 0.0\nsamples = 2\nvalue = [0, 0, 0, 0, 0, 2]"] ;
817 -> 819 ;
820 [label="X[4] <= 56.0\ngini = 0.541\nsamples = 14\nvalue = [2, 0, 2, 0, 1, 9]"] ;
768 -> 820 ;
821 [label="X[3] <= 3.5\ngini = 0.32\nsamples = 10\nvalue = [2, 0, 0, 0, 0, 8]"] ;
820 -> 821 ;
822 [label="X[5] <= 10.0\ngini = 0.5\nsamples = 4\nvalue = [2, 0, 0, 0, 0, 2]"] ;
821 -> 822 ;
823 [label="X[4] <= 44.0\ngini = 0.444\nsamples = 3\nvalue = [1, 0, 0, 0, 0, 2]"] ;
822 -> 823 ;
824 [label="gini = 0.0\nsamples = 2\nvalue = [0, 0, 0, 0, 0, 2]"] ;
823 -> 824 ;
825 [label="gini = 0.0\nsamples = 1\nvalue = [1, 0, 0, 0, 0, 0]"] ;
823 -> 825 ;
826 [label="gini = 0.0\nsamples = 1\nvalue = [1, 0, 0, 0, 0, 0]"] ;
822 -> 826 ;
827 [label="gini = 0.0\nsamples = 6\nvalue = [0, 0, 0, 0, 0, 6]"] ;
821 -> 827 ;
828 [label="X[5] <= 11.5\ngini = 0.625\nsamples = 4\nvalue = [0, 0, 2, 0, 1, 1]"] ;
820 -> 828 ;
829 [label="X[4] <= 60.5\ngini = 0.444\nsamples = 3\nvalue = [0, 0, 2, 0, 1, 0]"] ;
828 -> 829 ;
830 [label="gini = 0.0\nsamples = 1\nvalue = [0, 0, 0, 0, 1, 0]"] ;
829 -> 830 ;
831 [label="gini = 0.0\nsamples = 2\nvalue = [0, 0, 2, 0, 0, 0]"] ;
829 -> 831 ;
832 [label="gini = 0.0\nsamples = 1\nvalue = [0, 0, 0, 0, 0, 1]"] ;
828 -> 832 ;
833 [label="X[14] <= 0.5\ngini = 0.5\nsamples = 2\nvalue = [1, 1, 0, 0, 0, 0]"] ;
757 -> 833 ;
834 [label="gini = 0.0\nsamples = 1\nvalue = [0, 1, 0, 0, 0, 0]"] ;
833 -> 834 ;
835 [label="gini = 0.0\nsamples = 1\nvalue = [1, 0, 0, 0, 0, 0]"] ;
833 -> 835 ;
836 [label="X[5] <= 1.0\ngini = 0.37\nsamples = 9\nvalue = [7, 1, 0, 0, 0, 1]"] ;
328 -> 836 ;
837 [label="gini = 0.0\nsamples = 1\nvalue = [0, 1, 0, 0, 0, 0]"] ;
836 -> 837 ;
838 [label="X[11] <= 0.5\ngini = 0.219\nsamples = 8\nvalue = [7, 0, 0, 0, 0, 1]"] ;
836 -> 838 ;
839 [label="gini = 0.0\nsamples = 7\nvalue = [7, 0, 0, 0, 0, 0]"] ;
838 -> 839 ;
840 [label="gini = 0.0\nsamples = 1\nvalue = [0, 0, 0, 0, 0, 1]"] ;
838 -> 840 ;
841 [label="X[7] <= 0.5\ngini = 0.738\nsamples = 611\nvalue = [158, 247, 57, 74, 29, 46]"] ;
1 -> 841 ;
842 [label="X[5] <= 22.5\ngini = 0.657\nsamples = 448\nvalue = [15, 241, 55, 73, 26, 38]"] ;
841 -> 842 ;
843 [label="X[6] <= 1.5\ngini = 0.723\nsamples = 145\nvalue = [3, 11, 30, 64, 16, 21]"] ;
842 -> 843 ;
844 [label="X[5] <= 17.5\ngini = 0.687\nsamples = 130\nvalue = [3, 10, 30, 63, 16, 8]"] ;
843 -> 844 ;
845 [label="X[4] <= 82.5\ngini = 0.61\nsamples = 71\nvalue = [0, 5, 4, 41, 14, 7]"] ;
844 -> 845 ;
846 [label="X[5] <= 14.5\ngini = 0.559\nsamples = 58\nvalue = [0, 5, 4, 37, 7, 5]"] ;
845 -> 846 ;
847 [label="X[12] <= 0.5\ngini = 0.37\nsamples = 26\nvalue = [0, 0, 0, 20, 5, 1]"] ;
846 -> 847 ;
848 [label="X[16] <= 0.5\ngini = 0.333\nsamples = 25\nvalue = [0, 0, 0, 20, 4, 1]"] ;
847 -> 848 ;
849 [label="X[5] <= 13.5\ngini = 0.245\nsamples = 21\nvalue = [0, 0, 0, 18, 3, 0]"] ;
848 -> 849 ;
850 [label="gini = 0.0\nsamples = 11\nvalue = [0, 0, 0, 11, 0, 0]"] ;
849 -> 850 ;
851 [label="X[20] <= 0.5\ngini = 0.42\nsamples = 10\nvalue = [0, 0, 0, 7, 3, 0]"] ;
849 -> 851 ;
852 [label="X[9] <= 0.5\ngini = 0.346\nsamples = 9\nvalue = [0, 0, 0, 7, 2, 0]"] ;
851 -> 852 ;
853 [label="X[0] <= 0.5\ngini = 0.219\nsamples = 8\nvalue = [0, 0, 0, 7, 1, 0]"] ;
852 -> 853 ;
854 [label="gini = 0.0\nsamples = 6\nvalue = [0, 0, 0, 6, 0, 0]"] ;
853 -> 854 ;
855 [label="X[4] <= 72.5\ngini = 0.5\nsamples = 2\nvalue = [0, 0, 0, 1, 1, 0]"] ;
853 -> 855 ;
856 [label="gini = 0.0\nsamples = 1\nvalue = [0, 0, 0, 0, 1, 0]"] ;
855 -> 856 ;
857 [label="gini = 0.0\nsamples = 1\nvalue = [0, 0, 0, 1, 0, 0]"] ;
855 -> 857 ;
858 [label="gini = 0.0\nsamples = 1\nvalue = [0, 0, 0, 0, 1, 0]"] ;
852 -> 858 ;
859 [label="gini = 0.0\nsamples = 1\nvalue = [0, 0, 0, 0, 1, 0]"] ;
851 -> 859 ;
860 [label="X[3] <= 1.5\ngini = 0.625\nsamples = 4\nvalue = [0, 0, 0, 2, 1, 1]"] ;
848 -> 860 ;
861 [label="gini = 0.0\nsamples = 2\nvalue = [0, 0, 0, 2, 0, 0]"] ;
860 -> 861 ;
862 [label="X[1] <= 0.5\ngini = 0.5\nsamples = 2\nvalue = [0, 0, 0, 0, 1, 1]"] ;
860 -> 862 ;
863 [label="gini = 0.0\nsamples = 1\nvalue = [0, 0, 0, 0, 1, 0]"] ;
862 -> 863 ;
864 [label="gini = 0.0\nsamples = 1\nvalue = [0, 0, 0, 0, 0, 1]"] ;
862 -> 864 ;
865 [label="gini = 0.0\nsamples = 1\nvalue = [0, 0, 0, 0, 1, 0]"] ;
847 -> 865 ;
866 [label="X[3] <= 3.5\ngini = 0.658\nsamples = 32\nvalue = [0, 5, 4, 17, 2, 4]"] ;
846 -> 866 ;
867 [label="X[11] <= 0.5\ngini = 0.42\nsamples = 10\nvalue = [0, 0, 0, 7, 0, 3]"] ;
866 -> 867 ;
868 [label="X[8] <= 0.5\ngini = 0.346\nsamples = 9\nvalue = [0, 0, 0, 7, 0, 2]"] ;
867 -> 868 ;
869 [label="X[4] <= 69.5\ngini = 0.219\nsamples = 8\nvalue = [0, 0, 0, 7, 0, 1]"] ;
868 -> 869 ;
870 [label="gini = 0.0\nsamples = 7\nvalue = [0, 0, 0, 7, 0, 0]"] ;
869 -> 870 ;
871 [label="gini = 0.0\nsamples = 1\nvalue = [0, 0, 0, 0, 0, 1]"] ;
869 -> 871 ;
872 [label="gini = 0.0\nsamples = 1\nvalue = [0, 0, 0, 0, 0, 1]"] ;
868 -> 872 ;
873 [label="gini = 0.0\nsamples = 1\nvalue = [0, 0, 0, 0, 0, 1]"] ;
867 -> 873 ;
874 [label="X[13] <= 0.5\ngini = 0.698\nsamples = 22\nvalue = [0, 5, 4, 10, 2, 1]"] ;
866 -> 874 ;
875 [label="X[5] <= 16.5\ngini = 0.659\nsamples = 19\nvalue = [0, 3, 3, 10, 2, 1]"] ;
874 -> 875 ;
876 [label="X[3] <= 6.5\ngini = 0.578\nsamples = 15\nvalue = [0, 3, 2, 9, 0, 1]"] ;
875 -> 876 ;
877 [label="X[10] <= 0.5\ngini = 0.43\nsamples = 11\nvalue = [0, 2, 0, 8, 0, 1]"] ;
876 -> 877 ;
878 [label="X[15] <= 0.5\ngini = 0.32\nsamples = 10\nvalue = [0, 2, 0, 8, 0, 0]"] ;
877 -> 878 ;
879 [label="X[14] <= 0.5\ngini = 0.198\nsamples = 9\nvalue = [0, 1, 0, 8, 0, 0]"] ;
878 -> 879 ;
880 [label="gini = 0.0\nsamples = 8\nvalue = [0, 0, 0, 8, 0, 0]"] ;
879 -> 880 ;
881 [label="gini = 0.0\nsamples = 1\nvalue = [0, 1, 0, 0, 0, 0]"] ;
879 -> 881 ;
882 [label="gini = 0.0\nsamples = 1\nvalue = [0, 1, 0, 0, 0, 0]"] ;
878 -> 882 ;
883 [label="gini = 0.0\nsamples = 1\nvalue = [0, 0, 0, 0, 0, 1]"] ;
877 -> 883 ;
884 [label="X[1] <= 0.5\ngini = 0.625\nsamples = 4\nvalue = [0, 1, 2, 1, 0, 0]"] ;
876 -> 884 ;
885 [label="gini = 0.0\nsamples = 2\nvalue = [0, 0, 2, 0, 0, 0]"] ;
884 -> 885 ;
886 [label="X[19] <= 0.5\ngini = 0.5\nsamples = 2\nvalue = [0, 1, 0, 1, 0, 0]"] ;
884 -> 886 ;
887 [label="gini = 0.0\nsamples = 1\nvalue = [0, 0, 0, 1, 0, 0]"] ;
886 -> 887 ;
888 [label="gini = 0.0\nsamples = 1\nvalue = [0, 1, 0, 0, 0, 0]"] ;
886 -> 888 ;
889 [label="X[14] <= 0.5\ngini = 0.625\nsamples = 4\nvalue = [0, 0, 1, 1, 2, 0]"] ;
875 -> 889 ;
890 [label="X[9] <= 0.5\ngini = 0.444\nsamples = 3\nvalue = [0, 0, 1, 0, 2, 0]"] ;
889 -> 890 ;
891 [label="gini = 0.0\nsamples = 2\nvalue = [0, 0, 0, 0, 2, 0]"] ;
890 -> 891 ;
892 [label="gini = 0.0\nsamples = 1\nvalue = [0, 0, 1, 0, 0, 0]"] ;
890 -> 892 ;
893 [label="gini = 0.0\nsamples = 1\nvalue = [0, 0, 0, 1, 0, 0]"] ;
889 -> 893 ;
894 [label="X[5] <= 16.0\ngini = 0.444\nsamples = 3\nvalue = [0, 2, 1, 0, 0, 0]"] ;
874 -> 894 ;
895 [label="gini = 0.0\nsamples = 1\nvalue = [0, 0, 1, 0, 0, 0]"] ;
894 -> 895 ;
896 [label="gini = 0.0\nsamples = 2\nvalue = [0, 2, 0, 0, 0, 0]"] ;
894 -> 896 ;
897 [label="X[4] <= 112.5\ngini = 0.592\nsamples = 13\nvalue = [0, 0, 0, 4, 7, 2]"] ;
845 -> 897 ;
898 [label="X[3] <= 8.0\ngini = 0.37\nsamples = 9\nvalue = [0, 0, 0, 1, 7, 1]"] ;
897 -> 898 ;
899 [label="X[4] <= 94.5\ngini = 0.219\nsamples = 8\nvalue = [0, 0, 0, 1, 7, 0]"] ;
898 -> 899 ;
900 [label="X[15] <= 0.5\ngini = 0.5\nsamples = 2\nvalue = [0, 0, 0, 1, 1, 0]"] ;
899 -> 900 ;
901 [label="gini = 0.0\nsamples = 1\nvalue = [0, 0, 0, 0, 1, 0]"] ;
900 -> 901 ;
902 [label="gini = 0.0\nsamples = 1\nvalue = [0, 0, 0, 1, 0, 0]"] ;
900 -> 902 ;
903 [label="gini = 0.0\nsamples = 6\nvalue = [0, 0, 0, 0, 6, 0]"] ;
899 -> 903 ;
904 [label="gini = 0.0\nsamples = 1\nvalue = [0, 0, 0, 0, 0, 1]"] ;
898 -> 904 ;
905 [label="X[4] <= 170.0\ngini = 0.375\nsamples = 4\nvalue = [0, 0, 0, 3, 0, 1]"] ;
897 -> 905 ;
906 [label="gini = 0.0\nsamples = 3\nvalue = [0, 0, 0, 3, 0, 0]"] ;
905 -> 906 ;
907 [label="gini = 0.0\nsamples = 1\nvalue = [0, 0, 0, 0, 0, 1]"] ;
905 -> 907 ;
908 [label="X[4] <= 40.5\ngini = 0.656\nsamples = 59\nvalue = [3, 5, 26, 22, 2, 1]"] ;
844 -> 908 ;
909 [label="X[18] <= 0.5\ngini = 0.543\nsamples = 28\nvalue = [1, 4, 18, 4, 1, 0]"] ;
908 -> 909 ;
910 [label="X[14] <= 0.5\ngini = 0.502\nsamples = 25\nvalue = [1, 2, 17, 4, 1, 0]"] ;
909 -> 910 ;
911 [label="X[3] <= 6.5\ngini = 0.472\nsamples = 24\nvalue = [1, 2, 17, 3, 1, 0]"] ;
910 -> 911 ;
912 [label="X[5] <= 20.5\ngini = 0.245\nsamples = 14\nvalue = [0, 2, 12, 0, 0, 0]"] ;
911 -> 912 ;
913 [label="gini = 0.0\nsamples = 8\nvalue = [0, 0, 8, 0, 0, 0]"] ;
912 -> 913 ;
914 [label="X[15] <= 0.5\ngini = 0.444\nsamples = 6\nvalue = [0, 2, 4, 0, 0, 0]"] ;
912 -> 914 ;
915 [label="X[4] <= 38.0\ngini = 0.32\nsamples = 5\nvalue = [0, 1, 4, 0, 0, 0]"] ;
914 -> 915 ;
916 [label="gini = 0.0\nsamples = 4\nvalue = [0, 0, 4, 0, 0, 0]"] ;
915 -> 916 ;
917 [label="gini = 0.0\nsamples = 1\nvalue = [0, 1, 0, 0, 0, 0]"] ;
915 -> 917 ;
918 [label="gini = 0.0\nsamples = 1\nvalue = [0, 1, 0, 0, 0, 0]"] ;
914 -> 918 ;
919 [label="X[4] <= 24.0\ngini = 0.64\nsamples = 10\nvalue = [1, 0, 5, 3, 1, 0]"] ;
911 -> 919 ;
920 [label="gini = 0.0\nsamples = 2\nvalue = [0, 0, 0, 2, 0, 0]"] ;
919 -> 920 ;
921 [label="X[5] <= 19.5\ngini = 0.562\nsamples = 8\nvalue = [1, 0, 5, 1, 1, 0]"] ;
919 -> 921 ;
922 [label="X[17] <= 0.5\ngini = 0.5\nsamples = 2\nvalue = [1, 0, 0, 0, 1, 0]"] ;
921 -> 922 ;
923 [label="gini = 0.0\nsamples = 1\nvalue = [0, 0, 0, 0, 1, 0]"] ;
922 -> 923 ;
924 [label="gini = 0.0\nsamples = 1\nvalue = [1, 0, 0, 0, 0, 0]"] ;
922 -> 924 ;
925 [label="X[9] <= 0.5\ngini = 0.278\nsamples = 6\nvalue = [0, 0, 5, 1, 0, 0]"] ;
921 -> 925 ;
926 [label="gini = 0.0\nsamples = 5\nvalue = [0, 0, 5, 0, 0, 0]"] ;
925 -> 926 ;
927 [label="gini = 0.0\nsamples = 1\nvalue = [0, 0, 0, 1, 0, 0]"] ;
925 -> 927 ;
928 [label="gini = 0.0\nsamples = 1\nvalue = [0, 0, 0, 1, 0, 0]"] ;
910 -> 928 ;
929 [label="X[1] <= 0.5\ngini = 0.444\nsamples = 3\nvalue = [0, 2, 1, 0, 0, 0]"] ;
909 -> 929 ;
930 [label="gini = 0.0\nsamples = 1\nvalue = [0, 0, 1, 0, 0, 0]"] ;
929 -> 930 ;
931 [label="gini = 0.0\nsamples = 2\nvalue = [0, 2, 0, 0, 0, 0]"] ;
929 -> 931 ;
932 [label="X[19] <= 0.5\ngini = 0.589\nsamples = 31\nvalue = [2, 1, 8, 18, 1, 1]"] ;
908 -> 932 ;
933 [label="X[5] <= 20.5\ngini = 0.546\nsamples = 28\nvalue = [0, 1, 8, 17, 1, 1]"] ;
932 -> 933 ;
934 [label="X[14] <= 0.5\ngini = 0.427\nsamples = 19\nvalue = [0, 0, 3, 14, 1, 1]"] ;
933 -> 934 ;
935 [label="X[8] <= 0.5\ngini = 0.364\nsamples = 18\nvalue = [0, 0, 3, 14, 1, 0]"] ;
934 -> 935 ;
936 [label="X[20] <= 0.5\ngini = 0.24\nsamples = 15\nvalue = [0, 0, 1, 13, 1, 0]"] ;
935 -> 936 ;
937 [label="X[10] <= 0.5\ngini = 0.133\nsamples = 14\nvalue = [0, 0, 0, 13, 1, 0]"] ;
936 -> 937 ;
938 [label="gini = 0.0\nsamples = 11\nvalue = [0, 0, 0, 11, 0, 0]"] ;
937 -> 938 ;
939 [label="X[4] <= 62.5\ngini = 0.444\nsamples = 3\nvalue = [0, 0, 0, 2, 1, 0]"] ;
937 -> 939 ;
940 [label="gini = 0.0\nsamples = 1\nvalue = [0, 0, 0, 0, 1, 0]"] ;
939 -> 940 ;
941 [label="gini = 0.0\nsamples = 2\nvalue = [0, 0, 0, 2, 0, 0]"] ;
939 -> 941 ;
942 [label="gini = 0.0\nsamples = 1\nvalue = [0, 0, 1, 0, 0, 0]"] ;
936 -> 942 ;
943 [label="X[4] <= 57.0\ngini = 0.444\nsamples = 3\nvalue = [0, 0, 2, 1, 0, 0]"] ;
935 -> 943 ;
944 [label="gini = 0.0\nsamples = 1\nvalue = [0, 0, 0, 1, 0, 0]"] ;
943 -> 944 ;
945 [label="gini = 0.0\nsamples = 2\nvalue = [0, 0, 2, 0, 0, 0]"] ;
943 -> 945 ;
946 [label="gini = 0.0\nsamples = 1\nvalue = [0, 0, 0, 0, 0, 1]"] ;
934 -> 946 ;
947 [label="X[4] <= 55.0\ngini = 0.568\nsamples = 9\nvalue = [0, 1, 5, 3, 0, 0]"] ;
933 -> 947 ;
948 [label="gini = 0.0\nsamples = 1\nvalue = [0, 0, 0, 1, 0, 0]"] ;
947 -> 948 ;
949 [label="X[11] <= 0.5\ngini = 0.531\nsamples = 8\nvalue = [0, 1, 5, 2, 0, 0]"] ;
947 -> 949 ;
950 [label="X[16] <= 0.5\ngini = 0.449\nsamples = 7\nvalue = [0, 1, 5, 1, 0, 0]"] ;
949 -> 950 ;
951 [label="X[2] <= 0.5\ngini = 0.278\nsamples = 6\nvalue = [0, 1, 5, 0, 0, 0]"] ;
950 -> 951 ;
952 [label="X[3] <= 1.5\ngini = 0.5\nsamples = 2\nvalue = [0, 1, 1, 0, 0, 0]"] ;
951 -> 952 ;
953 [label="gini = 0.0\nsamples = 1\nvalue = [0, 0, 1, 0, 0, 0]"] ;
952 -> 953 ;
954 [label="gini = 0.0\nsamples = 1\nvalue = [0, 1, 0, 0, 0, 0]"] ;
952 -> 954 ;
955 [label="gini = 0.0\nsamples = 4\nvalue = [0, 0, 4, 0, 0, 0]"] ;
951 -> 955 ;
956 [label="gini = 0.0\nsamples = 1\nvalue = [0, 0, 0, 1, 0, 0]"] ;
950 -> 956 ;
957 [label="gini = 0.0\nsamples = 1\nvalue = [0, 0, 0, 1, 0, 0]"] ;
949 -> 957 ;
958 [label="X[5] <= 21.0\ngini = 0.444\nsamples = 3\nvalue = [2, 0, 0, 1, 0, 0]"] ;
932 -> 958 ;
959 [label="gini = 0.0\nsamples = 2\nvalue = [2, 0, 0, 0, 0, 0]"] ;
958 -> 959 ;
960 [label="gini = 0.0\nsamples = 1\nvalue = [0, 0, 0, 1, 0, 0]"] ;
958 -> 960 ;
961 [label="X[4] <= 89.0\ngini = 0.24\nsamples = 15\nvalue = [0, 1, 0, 1, 0, 13]"] ;
843 -> 961 ;
962 [label="X[13] <= 0.5\ngini = 0.142\nsamples = 13\nvalue = [0, 1, 0, 0, 0, 12]"] ;
961 -> 962 ;
963 [label="gini = 0.0\nsamples = 10\nvalue = [0, 0, 0, 0, 0, 10]"] ;
962 -> 963 ;
964 [label="X[4] <= 28.5\ngini = 0.444\nsamples = 3\nvalue = [0, 1, 0, 0, 0, 2]"] ;
962 -> 964 ;
965 [label="gini = 0.0\nsamples = 2\nvalue = [0, 0, 0, 0, 0, 2]"] ;
964 -> 965 ;
966 [label="gini = 0.0\nsamples = 1\nvalue = [0, 1, 0, 0, 0, 0]"] ;
964 -> 966 ;
967 [label="X[5] <= 15.0\ngini = 0.5\nsamples = 2\nvalue = [0, 0, 0, 1, 0, 1]"] ;
961 -> 967 ;
968 [label="gini = 0.0\nsamples = 1\nvalue = [0, 0, 0, 0, 0, 1]"] ;
967 -> 968 ;
969 [label="gini = 0.0\nsamples = 1\nvalue = [0, 0, 0, 1, 0, 0]"] ;
967 -> 969 ;
970 [label="X[6] <= 0.5\ngini = 0.41\nsamples = 303\nvalue = [12, 230, 25, 9, 10, 17]"] ;
842 -> 970 ;
971 [label="X[5] <= 37.5\ngini = 0.396\nsamples = 299\nvalue = [12, 230, 25, 9, 10, 13]"] ;
970 -> 971 ;
972 [label="X[4] <= 77.5\ngini = 0.55\nsamples = 135\nvalue = [5, 87, 21, 9, 7, 6]"] ;
971 -> 972 ;
973 [label="X[19] <= 0.5\ngini = 0.454\nsamples = 99\nvalue = [4, 72, 9, 4, 5, 5]"] ;
972 -> 973 ;
974 [label="X[3] <= 6.5\ngini = 0.406\nsamples = 92\nvalue = [4, 70, 9, 1, 4, 4]"] ;
973 -> 974 ;
975 [label="X[5] <= 36.5\ngini = 0.246\nsamples = 52\nvalue = [2, 45, 3, 0, 1, 1]"] ;
974 -> 975 ;
976 [label="X[5] <= 24.5\ngini = 0.216\nsamples = 51\nvalue = [2, 45, 3, 0, 0, 1]"] ;
975 -> 976 ;
977 [label="X[0] <= 0.5\ngini = 0.54\nsamples = 10\nvalue = [0, 6, 3, 0, 0, 1]"] ;
976 -> 977 ;
978 [label="X[3] <= 5.0\ngini = 0.48\nsamples = 5\nvalue = [0, 2, 3, 0, 0, 0]"] ;
977 -> 978 ;
979 [label="X[18] <= 0.5\ngini = 0.375\nsamples = 4\nvalue = [0, 1, 3, 0, 0, 0]"] ;
978 -> 979 ;
980 [label="gini = 0.0\nsamples = 3\nvalue = [0, 0, 3, 0, 0, 0]"] ;
979 -> 980 ;
981 [label="gini = 0.0\nsamples = 1\nvalue = [0, 1, 0, 0, 0, 0]"] ;
979 -> 981 ;
982 [label="gini = 0.0\nsamples = 1\nvalue = [0, 1, 0, 0, 0, 0]"] ;
978 -> 982 ;
983 [label="X[3] <= 2.5\ngini = 0.32\nsamples = 5\nvalue = [0, 4, 0, 0, 0, 1]"] ;
977 -> 983 ;
984 [label="X[3] <= 1.0\ngini = 0.5\nsamples = 2\nvalue = [0, 1, 0, 0, 0, 1]"] ;
983 -> 984 ;
985 [label="gini = 0.0\nsamples = 1\nvalue = [0, 1, 0, 0, 0, 0]"] ;
984 -> 985 ;
986 [label="gini = 0.0\nsamples = 1\nvalue = [0, 0, 0, 0, 0, 1]"] ;
984 -> 986 ;
987 [label="gini = 0.0\nsamples = 3\nvalue = [0, 3, 0, 0, 0, 0]"] ;
983 -> 987 ;
988 [label="X[3] <= 3.5\ngini = 0.093\nsamples = 41\nvalue = [2, 39, 0, 0, 0, 0]"] ;
976 -> 988 ;
989 [label="gini = 0.0\nsamples = 25\nvalue = [0, 25, 0, 0, 0, 0]"] ;
988 -> 989 ;
990 [label="X[10] <= 0.5\ngini = 0.219\nsamples = 16\nvalue = [2, 14, 0, 0, 0, 0]"] ;
988 -> 990 ;
991 [label="X[1] <= 0.5\ngini = 0.124\nsamples = 15\nvalue = [1, 14, 0, 0, 0, 0]"] ;
990 -> 991 ;
992 [label="gini = 0.0\nsamples = 10\nvalue = [0, 10, 0, 0, 0, 0]"] ;
991 -> 992 ;
993 [label="X[4] <= 35.5\ngini = 0.32\nsamples = 5\nvalue = [1, 4, 0, 0, 0, 0]"] ;
991 -> 993 ;
994 [label="gini = 0.444\nsamples = 3\nvalue = [1, 2, 0, 0, 0, 0]"] ;
993 -> 994 ;
995 [label="gini = 0.0\nsamples = 2\nvalue = [0, 2, 0, 0, 0, 0]"] ;
993 -> 995 ;
996 [label="gini = 0.0\nsamples = 1\nvalue = [1, 0, 0, 0, 0, 0]"] ;
990 -> 996 ;
997 [label="gini = 0.0\nsamples = 1\nvalue = [0, 0, 0, 0, 1, 0]"] ;
975 -> 997 ;
998 [label="X[4] <= 49.5\ngini = 0.572\nsamples = 40\nvalue = [2, 25, 6, 1, 3, 3]"] ;
974 -> 998 ;
999 [label="X[1] <= 0.5\ngini = 0.391\nsamples = 26\nvalue = [0, 20, 2, 0, 2, 2]"] ;
998 -> 999 ;
1000 [label="X[5] <= 32.5\ngini = 0.204\nsamples = 18\nvalue = [0, 16, 1, 0, 0, 1]"] ;
999 -> 1000 ;
1001 [label="X[8] <= 0.5\ngini = 0.111\nsamples = 17\nvalue = [0, 16, 0, 0, 0, 1]"] ;
1000 -> 1001 ;
1002 [label="gini = 0.0\nsamples = 15\nvalue = [0, 15, 0, 0, 0, 0]"] ;
1001 -> 1002 ;
1003 [label="X[5] <= 25.0\ngini = 0.5\nsamples = 2\nvalue = [0, 1, 0, 0, 0, 1]"] ;
1001 -> 1003 ;
1004 [label="gini = 0.0\nsamples = 1\nvalue = [0, 0, 0, 0, 0, 1]"] ;
1003 -> 1004 ;
1005 [label="gini = 0.0\nsamples = 1\nvalue = [0, 1, 0, 0, 0, 0]"] ;
1003 -> 1005 ;
1006 [label="gini = 0.0\nsamples = 1\nvalue = [0, 0, 1, 0, 0, 0]"] ;
1000 -> 1006 ;
1007 [label="X[18] <= 0.5\ngini = 0.656\nsamples = 8\nvalue = [0, 4, 1, 0, 2, 1]"] ;
999 -> 1007 ;
1008 [label="X[4] <= 29.5\ngini = 0.571\nsamples = 7\nvalue = [0, 4, 1, 0, 2, 0]"] ;
1007 -> 1008 ;
1009 [label="X[11] <= 0.5\ngini = 0.444\nsamples = 3\nvalue = [0, 1, 0, 0, 2, 0]"] ;
1008 -> 1009 ;
1010 [label="gini = 0.0\nsamples = 2\nvalue = [0, 0, 0, 0, 2, 0]"] ;
1009 -> 1010 ;
1011 [label="gini = 0.0\nsamples = 1\nvalue = [0, 1, 0, 0, 0, 0]"] ;
1009 -> 1011 ;
1012 [label="X[11] <= 0.5\ngini = 0.375\nsamples = 4\nvalue = [0, 3, 1, 0, 0, 0]"] ;
1008 -> 1012 ;
1013 [label="gini = 0.0\nsamples = 3\nvalue = [0, 3, 0, 0, 0, 0]"] ;
1012 -> 1013 ;
1014 [label="gini = 0.0\nsamples = 1\nvalue = [0, 0, 1, 0, 0, 0]"] ;
1012 -> 1014 ;
1015 [label="gini = 0.0\nsamples = 1\nvalue = [0, 0, 0, 0, 0, 1]"] ;
1007 -> 1015 ;
1016 [label="X[9] <= 0.5\ngini = 0.755\nsamples = 14\nvalue = [2, 5, 4, 1, 1, 1]"] ;
998 -> 1016 ;
1017 [label="X[18] <= 0.5\ngini = 0.694\nsamples = 12\nvalue = [1, 5, 4, 1, 0, 1]"] ;
1016 -> 1017 ;
1018 [label="X[3] <= 9.5\ngini = 0.645\nsamples = 11\nvalue = [1, 5, 4, 1, 0, 0]"] ;
1017 -> 1018 ;
1019 [label="X[15] <= 0.5\ngini = 0.469\nsamples = 8\nvalue = [0, 5, 3, 0, 0, 0]"] ;
1018 -> 1019 ;
1020 [label="X[4] <= 52.0\ngini = 0.408\nsamples = 7\nvalue = [0, 5, 2, 0, 0, 0]"] ;
1019 -> 1020 ;
1021 [label="gini = 0.0\nsamples = 1\nvalue = [0, 0, 1, 0, 0, 0]"] ;
1020 -> 1021 ;
1022 [label="gini = 0.278\nsamples = 6\nvalue = [0, 5, 1, 0, 0, 0]"] ;
1020 -> 1022 ;
1023 [label="gini = 0.0\nsamples = 1\nvalue = [0, 0, 1, 0, 0, 0]"] ;
1019 -> 1023 ;
1024 [label="X[5] <= 29.0\ngini = 0.667\nsamples = 3\nvalue = [1, 0, 1, 1, 0, 0]"] ;
1018 -> 1024 ;
1025 [label="gini = 0.0\nsamples = 1\nvalue = [0, 0, 1, 0, 0, 0]"] ;
1024 -> 1025 ;
1026 [label="X[4] <= 54.5\ngini = 0.5\nsamples = 2\nvalue = [1, 0, 0, 1, 0, 0]"] ;
1024 -> 1026 ;
1027 [label="gini = 0.0\nsamples = 1\nvalue = [0, 0, 0, 1, 0, 0]"] ;
1026 -> 1027 ;
1028 [label="gini = 0.0\nsamples = 1\nvalue = [1, 0, 0, 0, 0, 0]"] ;
1026 -> 1028 ;
1029 [label="gini = 0.0\nsamples = 1\nvalue = [0, 0, 0, 0, 0, 1]"] ;
1017 -> 1029 ;
1030 [label="X[4] <= 63.0\ngini = 0.5\nsamples = 2\nvalue = [1, 0, 0, 0, 1, 0]"] ;
1016 -> 1030 ;
1031 [label="gini = 0.0\nsamples = 1\nvalue = [0, 0, 0, 0, 1, 0]"] ;
1030 -> 1031 ;
1032 [label="gini = 0.0\nsamples = 1\nvalue = [1, 0, 0, 0, 0, 0]"] ;
1030 -> 1032 ;
1033 [label="X[3] <= 3.0\ngini = 0.694\nsamples = 7\nvalue = [0, 2, 0, 3, 1, 1]"] ;
973 -> 1033 ;
1034 [label="gini = 0.0\nsamples = 2\nvalue = [0, 2, 0, 0, 0, 0]"] ;
1033 -> 1034 ;
1035 [label="X[3] <= 6.5\ngini = 0.56\nsamples = 5\nvalue = [0, 0, 0, 3, 1, 1]"] ;
1033 -> 1035 ;
1036 [label="gini = 0.0\nsamples = 3\nvalue = [0, 0, 0, 3, 0, 0]"] ;
1035 -> 1036 ;
1037 [label="X[4] <= 43.0\ngini = 0.5\nsamples = 2\nvalue = [0, 0, 0, 0, 1, 1]"] ;
1035 -> 1037 ;
1038 [label="gini = 0.0\nsamples = 1\nvalue = [0, 0, 0, 0, 1, 0]"] ;
1037 -> 1038 ;
1039 [label="gini = 0.0\nsamples = 1\nvalue = [0, 0, 0, 0, 0, 1]"] ;
1037 -> 1039 ;
1040 [label="X[5] <= 33.0\ngini = 0.691\nsamples = 36\nvalue = [1, 15, 12, 5, 2, 1]"] ;
972 -> 1040 ;
1041 [label="X[5] <= 24.5\ngini = 0.704\nsamples = 28\nvalue = [0, 9, 11, 5, 2, 1]"] ;
1040 -> 1041 ;
1042 [label="X[3] <= 5.0\ngini = 0.66\nsamples = 10\nvalue = [0, 4, 1, 4, 0, 1]"] ;
1041 -> 1042 ;
1043 [label="X[4] <= 134.0\ngini = 0.612\nsamples = 7\nvalue = [0, 4, 1, 1, 0, 1]"] ;
1042 -> 1043 ;
1044 [label="X[16] <= 0.5\ngini = 0.32\nsamples = 5\nvalue = [0, 4, 0, 0, 0, 1]"] ;
1043 -> 1044 ;
1045 [label="gini = 0.0\nsamples = 3\nvalue = [0, 3, 0, 0, 0, 0]"] ;
1044 -> 1045 ;
1046 [label="X[3] <= 3.0\ngini = 0.5\nsamples = 2\nvalue = [0, 1, 0, 0, 0, 1]"] ;
1044 -> 1046 ;
1047 [label="gini = 0.0\nsamples = 1\nvalue = [0, 0, 0, 0, 0, 1]"] ;
1046 -> 1047 ;
1048 [label="gini = 0.0\nsamples = 1\nvalue = [0, 1, 0, 0, 0, 0]"] ;
1046 -> 1048 ;
1049 [label="X[4] <= 183.5\ngini = 0.5\nsamples = 2\nvalue = [0, 0, 1, 1, 0, 0]"] ;
1043 -> 1049 ;
1050 [label="gini = 0.0\nsamples = 1\nvalue = [0, 0, 1, 0, 0, 0]"] ;
1049 -> 1050 ;
1051 [label="gini = 0.0\nsamples = 1\nvalue = [0, 0, 0, 1, 0, 0]"] ;
1049 -> 1051 ;
1052 [label="gini = 0.0\nsamples = 3\nvalue = [0, 0, 0, 3, 0, 0]"] ;
1042 -> 1052 ;
1053 [label="X[19] <= 0.5\ngini = 0.599\nsamples = 18\nvalue = [0, 5, 10, 1, 2, 0]"] ;
1041 -> 1053 ;
1054 [label="X[17] <= 0.5\ngini = 0.555\nsamples = 16\nvalue = [0, 3, 10, 1, 2, 0]"] ;
1053 -> 1054 ;
1055 [label="X[0] <= 0.5\ngini = 0.507\nsamples = 15\nvalue = [0, 3, 10, 1, 1, 0]"] ;
1054 -> 1055 ;
1056 [label="gini = 0.0\nsamples = 6\nvalue = [0, 0, 6, 0, 0, 0]"] ;
1055 -> 1056 ;
1057 [label="X[5] <= 26.0\ngini = 0.667\nsamples = 9\nvalue = [0, 3, 4, 1, 1, 0]"] ;
1055 -> 1057 ;
1058 [label="gini = 0.0\nsamples = 1\nvalue = [0, 0, 0, 0, 1, 0]"] ;
1057 -> 1058 ;
1059 [label="X[3] <= 1.5\ngini = 0.594\nsamples = 8\nvalue = [0, 3, 4, 1, 0, 0]"] ;
1057 -> 1059 ;
1060 [label="gini = 0.0\nsamples = 1\nvalue = [0, 0, 0, 1, 0, 0]"] ;
1059 -> 1060 ;
1061 [label="X[4] <= 100.5\ngini = 0.49\nsamples = 7\nvalue = [0, 3, 4, 0, 0, 0]"] ;
1059 -> 1061 ;
1062 [label="gini = 0.0\nsamples = 2\nvalue = [0, 0, 2, 0, 0, 0]"] ;
1061 -> 1062 ;
1063 [label="gini = 0.48\nsamples = 5\nvalue = [0, 3, 2, 0, 0, 0]"] ;
1061 -> 1063 ;
1064 [label="gini = 0.0\nsamples = 1\nvalue = [0, 0, 0, 0, 1, 0]"] ;
1054 -> 1064 ;
1065 [label="gini = 0.0\nsamples = 2\nvalue = [0, 2, 0, 0, 0, 0]"] ;
1053 -> 1065 ;
1066 [label="X[4] <= 100.5\ngini = 0.406\nsamples = 8\nvalue = [1, 6, 1, 0, 0, 0]"] ;
1040 -> 1066 ;
1067 [label="gini = 0.0\nsamples = 1\nvalue = [0, 0, 1, 0, 0, 0]"] ;
1066 -> 1067 ;
1068 [label="X[3] <= 1.5\ngini = 0.245\nsamples = 7\nvalue = [1, 6, 0, 0, 0, 0]"] ;
1066 -> 1068 ;
1069 [label="gini = 0.0\nsamples = 1\nvalue = [1, 0, 0, 0, 0, 0]"] ;
1068 -> 1069 ;
1070 [label="gini = 0.0\nsamples = 6\nvalue = [0, 6, 0, 0, 0, 0]"] ;
1068 -> 1070 ;
1071 [label="X[19] <= 0.5\ngini = 0.235\nsamples = 164\nvalue = [7, 143, 4, 0, 3, 7]"] ;
971 -> 1071 ;
1072 [label="X[12] <= 0.5\ngini = 0.206\nsamples = 153\nvalue = [7, 136, 4, 0, 3, 3]"] ;
1071 -> 1072 ;
1073 [label="X[3] <= 7.5\ngini = 0.163\nsamples = 139\nvalue = [5, 127, 2, 0, 2, 3]"] ;
1072 -> 1073 ;
1074 [label="X[5] <= 186.5\ngini = 0.083\nsamples = 93\nvalue = [0, 89, 1, 0, 2, 1]"] ;
1073 -> 1074 ;
1075 [label="X[14] <= 0.5\ngini = 0.046\nsamples = 86\nvalue = [0, 84, 0, 0, 1, 1]"] ;
1074 -> 1075 ;
1076 [label="X[11] <= 0.5\ngini = 0.025\nsamples = 80\nvalue = [0, 79, 0, 0, 0, 1]"] ;
1075 -> 1076 ;
1077 [label="gini = 0.0\nsamples = 71\nvalue = [0, 71, 0, 0, 0, 0]"] ;
1076 -> 1077 ;
1078 [label="X[3] <= 1.0\ngini = 0.198\nsamples = 9\nvalue = [0, 8, 0, 0, 0, 1]"] ;
1076 -> 1078 ;
1079 [label="X[5] <= 45.0\ngini = 0.444\nsamples = 3\nvalue = [0, 2, 0, 0, 0, 1]"] ;
1078 -> 1079 ;
1080 [label="gini = 0.0\nsamples = 1\nvalue = [0, 0, 0, 0, 0, 1]"] ;
1079 -> 1080 ;
1081 [label="gini = 0.0\nsamples = 2\nvalue = [0, 2, 0, 0, 0, 0]"] ;
1079 -> 1081 ;
1082 [label="gini = 0.0\nsamples = 6\nvalue = [0, 6, 0, 0, 0, 0]"] ;
1078 -> 1082 ;
1083 [label="X[5] <= 68.0\ngini = 0.278\nsamples = 6\nvalue = [0, 5, 0, 0, 1, 0]"] ;
1075 -> 1083 ;
1084 [label="gini = 0.0\nsamples = 3\nvalue = [0, 3, 0, 0, 0, 0]"] ;
1083 -> 1084 ;
1085 [label="X[4] <= 208.5\ngini = 0.444\nsamples = 3\nvalue = [0, 2, 0, 0, 1, 0]"] ;
1083 -> 1085 ;
1086 [label="gini = 0.0\nsamples = 1\nvalue = [0, 0, 0, 0, 1, 0]"] ;
1085 -> 1086 ;
1087 [label="gini = 0.0\nsamples = 2\nvalue = [0, 2, 0, 0, 0, 0]"] ;
1085 -> 1087 ;
1088 [label="X[5] <= 209.0\ngini = 0.449\nsamples = 7\nvalue = [0, 5, 1, 0, 1, 0]"] ;
1074 -> 1088 ;
1089 [label="gini = 0.0\nsamples = 1\nvalue = [0, 0, 1, 0, 0, 0]"] ;
1088 -> 1089 ;
1090 [label="X[0] <= 0.5\ngini = 0.278\nsamples = 6\nvalue = [0, 5, 0, 0, 1, 0]"] ;
1088 -> 1090 ;
1091 [label="X[3] <= 4.5\ngini = 0.5\nsamples = 2\nvalue = [0, 1, 0, 0, 1, 0]"] ;
1090 -> 1091 ;
1092 [label="gini = 0.0\nsamples = 1\nvalue = [0, 0, 0, 0, 1, 0]"] ;
1091 -> 1092 ;
1093 [label="gini = 0.0\nsamples = 1\nvalue = [0, 1, 0, 0, 0, 0]"] ;
1091 -> 1093 ;
1094 [label="gini = 0.0\nsamples = 4\nvalue = [0, 4, 0, 0, 0, 0]"] ;
1090 -> 1094 ;
1095 [label="X[4] <= 90.5\ngini = 0.303\nsamples = 46\nvalue = [5, 38, 1, 0, 0, 2]"] ;
1073 -> 1095 ;
1096 [label="X[4] <= 66.5\ngini = 0.562\nsamples = 11\nvalue = [4, 6, 1, 0, 0, 0]"] ;
1095 -> 1096 ;
1097 [label="X[13] <= 0.5\ngini = 0.375\nsamples = 8\nvalue = [2, 6, 0, 0, 0, 0]"] ;
1096 -> 1097 ;
1098 [label="X[18] <= 0.5\ngini = 0.245\nsamples = 7\nvalue = [1, 6, 0, 0, 0, 0]"] ;
1097 -> 1098 ;
1099 [label="gini = 0.0\nsamples = 6\nvalue = [0, 6, 0, 0, 0, 0]"] ;
1098 -> 1099 ;
1100 [label="gini = 0.0\nsamples = 1\nvalue = [1, 0, 0, 0, 0, 0]"] ;
1098 -> 1100 ;
1101 [label="gini = 0.0\nsamples = 1\nvalue = [1, 0, 0, 0, 0, 0]"] ;
1097 -> 1101 ;
1102 [label="X[5] <= 55.5\ngini = 0.444\nsamples = 3\nvalue = [2, 0, 1, 0, 0, 0]"] ;
1096 -> 1102 ;
1103 [label="gini = 0.0\nsamples = 1\nvalue = [0, 0, 1, 0, 0, 0]"] ;
1102 -> 1103 ;
1104 [label="gini = 0.0\nsamples = 2\nvalue = [2, 0, 0, 0, 0, 0]"] ;
1102 -> 1104 ;
1105 [label="X[4] <= 461.0\ngini = 0.16\nsamples = 35\nvalue = [1, 32, 0, 0, 0, 2]"] ;
1095 -> 1105 ;
1106 [label="X[13] <= 0.5\ngini = 0.112\nsamples = 34\nvalue = [1, 32, 0, 0, 0, 1]"] ;
1105 -> 1106 ;
1107 [label="X[16] <= 0.5\ngini = 0.061\nsamples = 32\nvalue = [1, 31, 0, 0, 0, 0]"] ;
1106 -> 1107 ;
1108 [label="gini = 0.0\nsamples = 29\nvalue = [0, 29, 0, 0, 0, 0]"] ;
1107 -> 1108 ;
1109 [label="X[3] <= 9.5\ngini = 0.444\nsamples = 3\nvalue = [1, 2, 0, 0, 0, 0]"] ;
1107 -> 1109 ;
1110 [label="gini = 0.0\nsamples = 1\nvalue = [1, 0, 0, 0, 0, 0]"] ;
1109 -> 1110 ;
1111 [label="gini = 0.0\nsamples = 2\nvalue = [0, 2, 0, 0, 0, 0]"] ;
1109 -> 1111 ;
1112 [label="X[4] <= 143.0\ngini = 0.5\nsamples = 2\nvalue = [0, 1, 0, 0, 0, 1]"] ;
1106 -> 1112 ;
1113 [label="gini = 0.0\nsamples = 1\nvalue = [0, 0, 0, 0, 0, 1]"] ;
1112 -> 1113 ;
